-0.48794663996251914 -0.48791307482933793 -0.20627597961383284 0.6937572545164643 
-0.004374177989373482 -0.4868786692871724 0.8028884792282889 -0.3439478418053455 
-0.35927898529839236 0.5686425381382482 -0.5583563112392316 -0.48559500022340296 
0.010801856188024138 -0.4457809638453795 -0.23479045701258397 -0.8637338093833075 
0.5463180500016059 0.6732986474300672 0.079114833916605 0.4918804353352886 
-0.6200850864245699 0.45781936382893407 0.23934717513003584 -0.5904310674874551 
0.6574638617987724 0.3321334338812946 -0.6152391979998255 0.28090813760266176 
0.299491505729498 0.44072546429552867 0.057642677854150115 -0.8442412124548121 
-0.7893529934782051 -0.5745857755494711 0.10526800586789317 0.18892243160569033 
0.7032670551379322 0.10244909978079679 0.5461135943905984 0.4434857079247378 
-0.6581142133995788 0.5401578264693103 -0.4558585411621636 -0.25943822978679965 
0.2303678955587273 -0.6272708936817625 -0.729927486889371 -0.14376272993684355 
-0.8304495983796838 0.5568059722092379 4.8981197583863344e-05 -0.017904509599253226 
0.4709051820919818 0.6018438165589597 0.5633236956884742 -0.3141635622164705 
-0.5842883951428388 0.3944709009446568 0.36216971982457574 0.6097810046660235 
-0.5071984835480774 0.23411345640274317 0.7572098229622789 0.33848762433377905 
0.6261192788574947 0.14025377653234963 0.49443982513891827 0.586372565974893 
0.4753686478618881 -0.7924974544107191 0.08267978945998812 -0.37301003444591485 
0.31922143577663015 0.13692054897622688 -0.5520690954993278 0.7580040580388139 
0.3434969061191533 -0.32945614115535166 -0.6327326520847784 0.6108337887898454 
-0.31007153232232315 0.6141299054030313 -0.6964620677340291 0.20406051146802287 
-0.3180216047823008 0.300086913834718 -0.22779689638975395 0.870010733860244 
-0.6808253496977554 -0.46056333354861106 -0.2061379548543287 -0.5309099759544875 
-0.30926033316658685 -0.19943395545921938 -0.572594695239824 -0.7326113968010564 
0.5538116762358107 0.6612994512777882 -0.2702557786283379 0.4277119090258873 
-0.3114782257793208 0.6311016134282276 -0.6804047828994693 0.204307121268889 
0.4612804173175207 -0.5306315342826404 -0.5821382435374854 0.4083694611933124 
-0.5573552166179432 -0.6816154725885639 -0.3650630599526166 -0.30246400165088494 
0.5987770673385365 -0.7427203887970231 -0.18449552560023025 -0.23620721565641328 
-0.2617956940516454 0.23989051778942772 -0.6472591846458015 -0.6745154571560162 
0.05282418868543554 0.5561874262140956 -0.6049830584973113 0.5673276398539949 
-0.23203674457780737 0.6267457255594772 0.7230907517607642 0.17460959130789777 
-0.6241901356584161 0.5766965124831968 -0.5236599816022722 0.05990017282741388 
0.6105079753344086 0.3548806287489032 0.30888508389031477 0.6371261698768443 
-0.5310469779695565 0.3570193270756251 0.3347183364812121 -0.6917296744445184 
0.0021166951840919765 -0.5230700884219659 0.6468043008562518 0.5550111697917346 
0.15942810957323336 -0.0034217053819994153 -0.8751978611854133 0.45672713252735697 
-0.18089281950917496 0.6291513839964705 0.6073588675839324 0.45006836128804917 
-0.2794188832284825 -0.09624153342042797 0.22508583951464983 0.9284390231944247 
0.5445007902522492 -0.5382378438226982 0.5101705864053149 -0.3918480389878529 
-0.09471229488082986 -0.6438384489332931 0.47780343826408467 0.5900894061552003 
-0.361582687190939 -0.7174726273474188 -0.5950596803932018 -0.019873754082006378 
-0.13586219557714285 0.013498883116876744 0.5241666687580568 0.8406001114267334 
-0.011236042469258798 -0.7013056486636995 0.5819804811787869 -0.41151288926220053 
0.37974968077021887 0.5282855495982547 -0.5413756498236462 0.5325570052291225 
0.4453173791478634 0.8667966861299192 0.008309376708039 -0.22424738794864965 
0.5094986481561273 -0.10204667948053914 0.3761950927462175 -0.76712114749089 
-0.7970608264823906 0.4656504608612005 -0.3802191634392906 0.05742016144601 
-0.5679607139050874 -0.7176370936227927 -0.20762202188200915 0.3454138464895132 
0.18172490069956843 0.7108157472100657 -0.6737515795740456 0.08818074055827986 
0.44816893936449076 0.6217241524669161 -0.1818304822849208 -0.6160692783609936 
0.6425036573533496 0.48207975948842885 0.2352655440730426 0.5472095389804196 
-0.43409515201068616 0.38167867949488965 -0.6345167650077409 -0.5130996584913772 
0.11604578599527009 -0.6253394633566206 -0.7478695853195512 0.190197304070158 
0.19237105164133603 0.07467666029542529 0.843452645053514 0.49598831684804723 
0.53726236514697 0.6499370254623466 -0.48262146465302364 -0.23665911304239104 
-0.7098378929673732 0.04469625387688522 0.056589964260112646 0.700663961212543 
-0.11263163008096067 0.5218882366784356 0.700976929321649 -0.4728404898914332 
-0.12509279181261723 -0.6890948182361752 0.5290460525131685 0.47917679329952106 
0.39605119867511773 0.5591568992675363 -0.06933063384187448 -0.725038118474195 
-0.5660829867410326 -0.7332121855404679 -0.33696429502984243 -0.16853785026623425 
-0.49623461436011806 -0.5044565612474916 -0.38418264787892437 -0.5930248547860021 
0.7259669228624122 -0.5570493133250544 -0.3867244519329689 -0.11450889795518483 
0.48209826992080407 -0.5598136332706483 -0.6616697176508515 -0.12799663623520016 
-0.11195032132191081 -0.8244206666482065 0.14607403346307965 -0.5352196434241506 
0.04960832398085403 0.6956371745371793 0.5652116938599222 -0.44064007615937306 
0.5840658474001058 -0.2042797864595158 0.6868469487664643 -0.3812848327891485 
0.21166026861133233 -0.8621524418871893 -0.13874294107826 0.4389117154283877 
0.5706157779815584 -0.5625226691924282 -0.4943340514130713 0.3370455847161716 
-0.5297999232184061 0.4991160670601868 -0.4460799458912846 -0.5207762233760013 
0.9640763573279614 -0.21577710756402696 0.12873205477139052 0.08616887585948216 
-0.4175029935884009 0.4029949697489425 -0.7372885853592147 -0.345965094483216 
0.2942875996692877 0.5200117788362467 0.41210450309690044 0.6878607686732163 
0.4489449760405507 -0.09663673313312497 0.6292222186371934 0.6270479645693736 
0.0594511239933506 0.2948509322213734 0.29918074965185765 0.9055492094093324 
0.38115827750646675 0.004352722675456546 0.7950659448929399 -0.47177278913170767 
0.4094860248635465 -0.5252092389144181 -0.009088147909262845 0.7459181298024388 
-0.6204117733451789 0.4372255050853191 0.16548880099732938 0.6297114783311833 
0.3540575620361254 0.25765959711631514 -0.8979469837580799 0.04411336689326616 
0.36491662071187914 -0.27341468710142336 0.5307090438242593 -0.7144425656472282 
-0.20462238709573483 -0.2406716939417587 -0.8842000466667845 -0.34408878492171724 
-0.9172432346554384 -0.011354108336643185 0.15561016231320807 0.3664988541422266 
0.8943632042499896 0.399697842538112 -0.19775545774531508 0.03533939000620701 
0.43705360816381794 -0.671621622848231 -0.36689189022671476 0.47254510916902404 
0.30622091567168314 0.6054674990454698 0.6109107628679175 -0.4079533039662249 
0.7320658249600576 -0.65259795332154 0.1059473182133035 0.16422760124137578 
-0.3212816260780275 0.6723468793339246 0.10759325400219119 0.6581424483254452 
-0.16290540577429707 0.7661393708397302 0.06494821231516382 0.6182831252232901 
-0.7033611084625835 -0.30260919565754557 0.6192974613228919 0.173728179075245 
-0.10566867671029935 0.4466285343728361 -0.8325391969322748 -0.3102185819992569 
0.24253251910789647 -0.4931421384066702 -0.6650561816948424 -0.5056570811254907 
-0.46152179914522484 -0.44151094019673054 0.5785142255003864 -0.5073332331850949 
-0.5374802195638789 0.7478849046637549 -0.11316233475098751 0.3727968199265602 
-0.737776785265127 -0.3452032039903619 0.35894903591393823 0.45571455177018116 
-0.3305968130112248 -0.6516542719028073 -0.30357860270928033 0.6114674881910929 
-0.6388916637624985 -0.34562808639737475 -0.6701190470049274 0.15264052774176096 
0.5721457481861603 -0.4532484982609619 -0.47548770042739247 -0.4910463200136539 
0.6139328038741845 0.5047097665975292 0.28660499877419604 0.5349879797770157 
-0.17235881824808172 -0.7890925717640266 -0.4877717198671551 0.3312160929918668 
0.5306075349483782 0.03767398667156656 -0.013395310558060468 -0.8466740106081735 
0.1867368009284853 0.6286256801201301 0.38089396371589307 0.6518273620194961 
0.7438276855746249 0.6294429455434507 -0.15592106534871197 -0.16189680002644888 
0.4432663765189444 0.6811426891859002 0.17809670268949854 -0.5548343184298299 
-0.3198201984729457 0.5000862484288439 -0.5707936905142647 -0.5672947625795571 
0.5072136803214247 0.6266369044820962 0.3340180177015398 -0.4883568739012751 
0.5116337241120784 -0.3937993748417713 -0.7626688196147651 -0.03859088380507214 
-0.7947873258589059 -0.1230015625020915 0.49279345231739385 0.33217214758193936 
0.05992966550856315 -0.6320213763570037 -0.7643938400382644 -0.11251432056136833 
-0.7322565191806504 -0.4803491978184884 -0.45066521026879336 -0.17310663339675006 
0.4713293097577914 0.3366187844422632 -0.7581609598924678 -0.2995470490904379 
-0.5801207264896602 0.08741177343147784 0.4999793792960305 -0.6370555272826923 
-0.20436378023604132 -0.39012169373687805 -0.42482931474270663 -0.7909238665881481 
-0.4267370401065656 -0.36942815292075215 -0.5695097809844157 -0.5975591584050333 
0.40732331117467063 0.09367012437228911 0.039387599136128604 -0.9076134887759624 
0.2725340324651363 0.26540091428002793 0.6475256094093834 -0.6603015530851218 
0.19024012929588505 0.7602682061936135 -0.6031924882454422 -0.14818829232062233 
-0.43322609882151153 -0.5620867515844677 0.7037588003721709 0.03312373607910222 
0.502479471017871 0.4604599272246084 0.2475173633366651 0.6886408290776653 
-0.43653796516062665 0.8391285975172683 0.07281366045355325 -0.3162213981587529 
0.3630768656483793 0.4401898356037802 -0.2732847378588543 0.7744182011778152 
-0.11339415914059128 0.3557790915676532 0.8825505186760592 -0.28577540947519053 
-0.5098515964195741 0.7534994973793301 -0.04371597681300872 0.41276963363211827 
-0.31006955985538026 -0.22155575171428388 0.813101013331204 0.4400416560431278 
0.8291096292792173 0.3684588323586448 -0.39876868190240206 0.13341233011683673 
0.5757302873020435 0.4272425590249073 -0.3661993430805571 -0.5932086253320356 
0.3895575417435648 -0.6010636670122895 0.015004497714396032 -0.6976691586395295 
0.599841147234448 0.149473166235915 -0.3142716922733655 -0.7204732292705307 
-0.2317428581466402 -0.3527066687319457 0.8096231574250501 0.4079259693757342 
-0.8550102062787387 0.4326867825510758 -0.060939996263591874 0.2793313663378681 
-0.6620434745959707 0.20341762676500336 0.24353535424150968 0.6789773472662033 
0.6112972112273931 -0.18602684322415444 -0.5744788336045282 -0.511550391345807 
0.7903129732085017 -0.13096783063406556 0.061304037803113456 -0.595394530262396 
0.11034912907105142 0.24514529577152702 0.598793379581341 -0.7544357774150873 
-0.40052547725223203 -0.2636052982280985 -0.6297932845686506 0.6111071980677187 
-0.5374214105337767 -0.46964245943058514 0.5209600304542144 0.4682038385885161 
-0.5813698777730473 -0.2055463662585456 0.542677301343483 -0.5703166691782858 
0.2209890661918174 0.4184989485558006 -0.6776855231433347 0.5628186158997432 
-0.36209048064381794 0.8502727906917883 0.3667974755940723 0.10670649996201338 
-0.5440884575250962 -0.47803387042132617 0.5076387567505507 0.4666414702560454 
-0.24542962626044587 -0.6343031774425801 0.7081951448809002 -0.18942918045281495 
0.47677257224690917 0.5304459716389517 0.10280892410413771 0.6933579960234278 
-0.06153305904336375 0.6864525813666694 0.643712318291372 0.3326123681701407 
-0.08514735445763283 -0.8474652651959883 0.14640445664585236 0.5031086238471689 
0.7903899858491223 0.16263719808290547 0.37812594861795873 -0.45371089809584125 
-0.39633855824881936 -0.4662239787356905 0.06520695354969167 0.7882252229571686 
0.33152353961165554 0.31453110551423924 -0.7191862869226875 -0.5233864834419277 
-0.18018297841907374 -0.5538710362170814 0.7895008860427508 -0.19351826907441952 
0.40971549897348125 0.14709080008785763 -0.7505991866745446 0.4970898987043869 
-0.2350533530240539 -0.5707070748179545 -0.7682933277006901 0.1696134387231247 
-0.7519039296707202 -0.2082298980694881 0.5839829493216249 -0.22415330690693766 
-0.5368174008561284 -0.1789425242574952 0.8163660439450727 -0.11555575902523485 
-0.21925191442451256 0.7710412595922753 0.5007419617405778 -0.32662128188429707 
0.018265467153180007 -0.619786920459001 0.48219254992361693 -0.6188868157714982 
0.11631758113879305 -0.7308920176745812 0.13234218343318857 -0.6593577369696485 
-0.38501017663862697 0.7024366800294115 -0.35803022546484037 -0.47975434556400554 
0.5221682346285879 0.1288857533894907 0.5885084249627626 0.6036444574962448 
0.3177985116715427 -0.2509541878131107 -0.7948603504846843 0.45191052745624233 
-0.6137653439432449 0.3171092336023399 0.39169878856736706 0.6077054348722118 
-0.581022244643504 0.4935817471257002 0.425401394946991 -0.4876718807876048 
-0.5635510114987654 -0.1350762311241401 -0.7431238362023896 0.3345618527146517 
0.7856097050234748 -0.3423826435490823 -0.4956847436554636 -0.1410253582746315 
-0.29554796734295147 -0.5802627517524762 0.3199125941435681 0.688187815960459 
0.6970156654469941 -0.7093846593541601 -0.10379424899881376 0.01301234295730184 
-0.029421071691643506 0.5059068582897362 0.6890565073613463 0.5180673517400096 
-0.10383469101080356 0.7066153182070668 0.6669745561526617 -0.2122689107306496 
0.4002965620716948 0.3652227499489755 -0.43872135828269754 -0.7168671948833164 
-0.9166264153021016 0.23615294689079003 -0.1849534741415878 -0.2642347684317334 
-0.6601913620455663 0.20750096531786102 0.35836659668147686 0.6266291544889303 
0.1405459469593279 0.24229216624618966 0.4569364100615456 0.8442454975474264 
0.6364217896549638 -0.12674616572661518 0.6146976647882235 -0.4483854324461036 
-0.5329173615404343 -0.644943352933322 0.35601187106491433 0.4162964147536769 
-0.4541126343855555 -0.44344910230377477 -0.383473109447787 0.6708822424895687 
0.35473725072742435 0.43819094565341754 -0.7954661168336004 0.22222473998946465 
0.30676165052195453 -0.12448026720851138 -0.4958607551073588 -0.8028225609617008 
0.5646094587115033 0.5117895236268156 -0.6181617984956288 -0.19277871646006473 
-0.6304123202251188 0.3692275243675097 -0.2008078252451213 -0.6526312581221858 
-0.6452425135557268 -0.5482078894909049 0.31242843820181926 -0.43071879411396397 
0.04333600309192996 0.7833095002180702 -0.2104453156689541 0.5833189409037973 
-0.35531004837343333 0.5603454181219417 0.2834309723484109 -0.6924122080294722 
-0.8346865982465345 0.065624931665853 -0.5031052103350114 0.2141886980800915 
-0.2852579940648477 -0.5475753973836498 0.6310415152232738 -0.46965483822372356 
0.275153512336524 0.803518355312928 0.007686952999918358 -0.5278159793693808 
0.4913457477619994 0.6414477355853985 0.4691979201883423 -0.35633898237422806 
0.3430461207384152 0.08165390615586648 0.6627976628220316 -0.6605688887719934 
0.8269678811980965 0.028438327682187306 0.2837144220275009 0.48458385416661637 
0.533910939497699 -0.0595890245193931 -0.6540550573478714 -0.5325413024350171 
-0.5733223668791283 -0.41411827982273886 -0.4088277114336017 -0.5767732798220923 
-0.10596715777988795 0.38419960378723805 0.6067544387314888 0.6877577167879818 
-0.18785115165083985 0.5018708992323525 0.615655400587346 0.5777594422030659 
0.7857509452230473 -0.596099070646124 -0.16321678880477827 0.024932507057479382 
-0.2973393998240431 -0.6181481894083011 -0.29125323987139773 -0.6668235505048777 
0.0694054743895645 0.18317709113631597 0.34871850003396093 0.9165284726300987 
0.5883799210424587 -0.565741036147602 0.15233278149206547 -0.5572619421919983 
0.4620368912937381 -0.36795257228752154 0.1109444231601823 -0.7992647562605705 
-0.2272571025903243 0.6429380728773995 -0.7308616374235948 0.028742141699054112 
0.3152472773149252 0.5793386019324618 -0.5531701279025703 0.5089093711582852 
-0.8807058652565284 0.2618398359144249 -0.36918008203362324 0.1396536654037544 
0.6313316710438956 -0.6672366416250851 -0.3367853452848871 -0.20686037902686788 
-0.18005427668680124 -0.12497422080167633 -0.8672831529989179 0.44696961206111374 
-0.2333148585447024 -0.298131779088968 0.847645174375623 0.3717247334214285 
-0.10042322097315963 0.47514929042932524 -0.8369309734718147 0.2523784343746613 
-0.3562611815404056 0.40532273979893174 -0.6201345963626707 -0.5694071737548001 
0.3043857193739557 0.2629578085382743 0.1178765777604706 -0.9079138930457159 
0.3749075628158001 0.6358491166684155 0.29490517724365467 0.6067710907833377 
-0.7678998336898781 -0.17725349397584989 0.5941882142288205 -0.16078373787164055 
-0.29304678546350765 -0.6208890179349946 0.5234648652373901 0.5045839313723969 
0.2629604984545304 -0.2719133776655799 -0.9085402971425074 0.17739622252811615 
0.4034169081494025 -0.06848015725206386 -0.20591170591900748 0.8889126141795004 
0.6360672117851797 -0.235780369930203 -0.624512721640427 -0.3870529418008217 
-0.8472812207422041 0.21569300992606094 -0.2779001473686782 0.3979479445092075 
0.3601677343428636 0.15460681695497527 0.7747134485960617 -0.49618041865210327 
0.4106521640873852 -0.6867173618492423 -0.59271598849908 -0.09204250128458359 
0.6004523413521381 0.3328456988247216 0.5138416423283174 0.5144292887734483 
0.3522171382831519 -0.6044482217833363 0.2327600332492288 0.6755799002371278 
0.36321489218776454 -0.5742575991285488 -0.4929196937077738 0.5434457907567046 
0.08822819131913127 0.9955514966903632 -0.024196209411452382 -0.022528806986819038 
-0.7719740768450295 0.5516154704037574 -0.08164855728204129 -0.30513916592969076 
0.5045383065277678 0.200983377347948 -0.5574089725863252 0.62796657280158 
0.76519592233249 0.04333001447966858 0.4111857809515038 0.49348147263521813 
-0.21667039021793025 0.6354800784437806 -0.5171717487113432 0.5308035363849297 
-0.5200286833091564 -0.19150413934455443 0.7552653152607022 -0.34995804993427265 
0.5755487458310523 -0.23618539042754144 -0.46312975846541754 -0.6312455380790081 
0.39214595322779594 -0.8238885482160487 0.35409791451267647 0.2050460397649467 
0.6114656644503823 -0.23507407088543836 0.16869463049113567 0.7364727042050232 
0.39297530294576194 0.5742388361138048 -0.2747234209099495 0.6635866276356722 
-0.33250745639686446 0.2924771158557916 0.6152265826719752 0.6522209595795956 
0.9082379670974021 -0.3871869812971583 -0.08614167127945861 0.1333028473287576 
-0.4092573498957316 -0.43790442060272594 -0.5931574874407788 0.5375056604965718 
0.47335454842017627 -0.7305551197178668 -0.1366372899907762 -0.47281596792824243 
-0.010058178881223952 0.8471451655571042 0.5306110288382666 0.026378733593863328 
0.019273172548262617 0.6310720480917107 -0.18777777927610295 0.752406884968096 
-0.468614621589527 -0.6475935223976368 -0.2138044946402997 -0.5615252480990788 
0.2285170179285273 0.7241425474625646 0.5415936669104552 0.36065751542698693 
0.6499404234608485 0.06495010191415475 -0.6047889425316576 -0.45561964971268876 
-0.21793373676465785 0.9353826844886844 -0.15120258518717522 0.23388436923242603 
0.2121913990418912 -0.49432633526336417 0.5911956657950845 0.6009192701044324 
0.6206554689466443 -0.21018974098184245 -0.4079099486989103 0.635780257168355 
0.3072495318553769 -0.6290522125417387 -0.6215435442336289 0.3515318786290851 
0.5629607841904292 -0.6297119022362214 -0.4275470664630315 -0.32208940001898967 
-0.6490044384369729 -0.4390281728720561 0.42974413644294834 -0.4487398795590138 
0.1207828965943066 -0.8802394843876233 0.16341571918206102 -0.4288184286379374 
0.1144976488655477 0.12744650159126247 -0.9614365545842821 0.21514513507284985 
0.007002293558554909 -0.9655932022422073 0.2598015436515975 -0.009159344125341199 
-0.090368396172157 -0.5636302652175951 -0.3165188467199007 -0.7576082739616296 
0.25952339801273644 0.3045022398251859 0.3052360618990896 -0.8641509927910185 
0.1491551903846171 -0.6648909282704187 -0.5532590071860187 -0.4791422060855946 
0.7111887741916237 -0.3715245603913255 0.297119601136748 0.5175905438763229 
0.7481937719971559 0.06868470126220691 0.09682561153350602 -0.6527735383027962 
0.21423544858970764 0.4998669865275901 0.7700329033030924 0.3335948083798715 
0.6020719089377157 -0.6353024466680833 -0.42683658144307385 -0.22739997904052767 
-0.5889528666607421 0.6477986226598688 -0.0730062822302895 -0.477662588117368 
0.2449971305485971 -0.3624435089801921 0.8393409269961453 0.32267308082691143 
-0.5810543741338678 0.7691299016866989 -0.2513757677356733 -0.087322574553256 
0.608450038618715 -0.6499753446639217 0.13766345743696354 -0.43401540792972043 
-0.22456262920171893 0.06362786300047918 0.9284749125703969 -0.2888900436903239 
0.1929551218201354 -0.5619100321707043 0.7491906216666011 -0.29281196887440686 
-0.358792379293979 -0.4874603471449176 -0.5200130123345839 0.6026913849762863 
-0.6701543604128444 0.14796206775145135 -0.44402771799448776 0.5760553318727062 
0.24791767576678403 -0.567096608017691 0.6505822737301458 0.4400919998424633 
-0.37033902001988883 -0.7483236611716362 -0.28635422602872584 -0.46995953614846026 
-0.633811342289693 0.392196107183773 0.22277149959779183 0.6283615638004788 
0.30351264663055433 -0.4027672318161495 0.8000853165802619 -0.3248416791348279 
-0.5330075169393262 0.2508464710297343 0.559953018095087 0.5826076315877656 
-0.4392429311448076 -0.5890534456172192 0.47055073741493675 0.48853217822786127 
0.4850236742630335 -0.23341947378600753 0.6221766051766326 0.56847485136348 
-0.1509787439173407 -0.6018895155716628 0.5515652628656212 0.557413841530715 
-0.3797066185332557 0.8137312670979155 -0.23356952609646803 0.37297397398254567 
-0.5517819158584459 0.24757665048798175 0.7582428348164595 -0.24353710787934166 
0.6864970091434724 -0.6475922226985326 0.3207366942478556 0.0804620562774713 
-0.17422370593533673 0.38185076292374176 -0.14340576406685135 0.8962538044421995 
0.6716177724702252 0.3911882700456064 -0.4863886086316688 -0.39915839772477296 
-0.2963624513197633 -0.7731652984667317 -0.5534825476307605 0.08967601776814958 
0.6090874243827942 -0.5136675044342411 -0.5989866285048215 -0.07983246970662841 
-0.4910363160119367 -0.3498704532733247 -0.7234331092529296 0.33633099577705067 
0.2648725191026471 0.2656552205056801 0.6210911586314957 0.6881247162485029 
-0.13701325613343926 -0.12060368111000036 0.8309707337912279 -0.5255185623066974 
0.7317833004328919 0.5566305303253798 -0.16998863556626212 -0.3546258841307988 
-0.6983297908613539 0.6863801616538272 0.18354018139415398 -0.08678005933049758 
-0.12194838439821577 -0.21733762715598817 0.5677899079649925 -0.7845429037203606 
-0.7407255387007826 0.44782621197726613 -0.41996464991506005 -0.2727765624173916 
-0.5742257980694525 -0.3784836238422264 0.21463710571823294 -0.6935025538263406 
0.674588244996098 -0.2973964481445761 -0.04159996700482296 -0.6743556147087918 
0.3979999398613813 -0.4167633792954409 0.6439468836864151 -0.5032263352996699 
-0.09368161925751592 -0.5451601038514389 0.1179245969690003 -0.8246926729465206 
0.5310370870568221 0.09209542203303946 0.596072455252963 0.595160208262839 
-0.3567730387675694 0.7623441288743785 -0.4874633880949858 0.23221514430862752 
0.1789541769180381 0.3918928773977747 -0.4922853813609632 -0.7563401870235186 
0.5979988869347631 0.2984243115867054 -0.7343193834283688 -0.1188078473846145 
-0.6508582940921976 -0.3785731085071098 0.6029246467825267 -0.2637190793795998 
-0.7181729719289544 0.016614170042733103 0.23046368841549067 -0.6563825409518842 
0.16806907526310963 -0.23089613194638345 -0.6132568835400928 -0.7364480680829399 
0.3180528975322654 -0.5972017787271565 -0.611184356700167 -0.4106654014906216 
0.12054775265453074 0.6705018552821306 -0.19446989737441542 -0.7057456768612523 
-0.33787045656111764 -0.6650026928645217 -0.6509159674250684 0.14115019099244513 
0.6026619592085649 -0.39919804421938443 0.5797570138074648 -0.3759272394431712 
-0.6469300176257061 -0.6313133257894914 -0.42747128201849355 -0.013904676367351985 
0.016768634056158457 -0.34983744760465385 0.6552717163420437 -0.6692918279252359 
0.8039934788618239 -0.3685168232596901 0.4304284545031603 0.18033630382224483 
0.2894482852104983 0.7188318807930622 -0.5140270818214094 0.3677996417866346 
0.6900303955782005 0.3742471044074937 -0.6173978461581975 0.051157185028277936 
0.26369119854390166 0.41988338818693033 0.6921159074173237 0.5245383330463457 
-0.47832787754723166 -0.10303065155080192 0.5798220587991905 0.6514549151952463 
0.6349171682832762 0.4912868100871181 -0.2764517556012901 -0.5282914787108861 
0.6790830494815578 0.004466088782914142 0.5594174891454805 0.47526659760178525 
-0.09807041381855769 0.7441445783610892 -0.5645207995703945 -0.34343457496538704 
0.6053457616095115 0.6253709671517323 0.17634067094056233 -0.4597517048552836 
0.36423740700120305 0.28893729455342204 -0.5460404740213702 -0.6969118680921614 
-0.24964576701684313 -0.6380993010467996 0.6544272619903598 -0.3197361909105047 
-0.29494747056173454 -0.05631938870903502 0.49894737957247753 -0.8129487243869896 
0.011837184283653223 0.002619674660879867 0.8274416975665865 -0.5614207473019068 
-0.24410963841184252 0.3951865658880949 0.20564603790516287 -0.8613639008397801 
0.5295565820865286 -0.3882131618131049 -0.7529691716812335 -0.04356367594203883 
-0.19561169274105275 -0.38122035233748924 -0.5771718139678124 -0.6951832893473242 
0.8425271623514736 -0.03615908152133098 -0.4736360402667183 0.25398701321912354 
-0.6795578221587733 0.018836697355163173 0.6947550716008025 0.2348653564503263 
0.33706049359011114 0.8649484165577651 -0.32786382024760435 -0.17538465077552268 
-0.5099291995645426 0.5721731854165267 -0.012375638516341988 0.6422125044664597 
-0.1675250913874701 0.25134811367464494 -0.2889280610432651 -0.9084492528752482 
-0.6431961953639902 -0.5917121247548168 -0.1679655010512662 0.4560296110386092 
-0.34055953281473444 0.7678792526862958 -0.5166800808546628 -0.165596956345716 
-0.9669428560290829 0.18057240774834044 0.17812369677308654 0.02621197020784143 
0.750402452460603 -0.5324265152892074 -0.15330060548022756 0.3604401330561005 
-0.6153640490005933 -0.39820320104369905 0.627194988586587 -0.2634155351683305 
0.12705017101288613 0.23818504167208532 0.4833209781909046 0.8327826679331473 
0.35554605335417205 0.4612333613778457 -0.5997951239247462 0.5487226982843558 
0.5404037085993252 -0.1444999961419589 0.63729612358361 0.5300351249798201 
0.027304779161453754 -0.2417885055912091 0.9412239825912748 -0.23428653865284996 
0.5621751035361232 -0.4522918487900777 -0.18503836260046122 -0.6671971529078513 
0.15953212302737912 -0.662354973721789 0.31580511772166864 0.660380585820925 
-0.7954962964829181 -0.5187843232938633 0.12631062583428626 0.2865206693902564 
0.2706603881536155 0.5752229272763995 -0.5702507548902698 0.5202649467023334 
-0.32936799010784606 0.7188488460243563 0.24871510954388704 0.5593870376996067 
0.6647878684129753 -0.13982354720096132 0.685633358494053 0.26155948344351493 
-0.18559219109159295 0.4892640646134768 -0.5637517202610994 0.6390306812558945 
-0.5182093461985375 -0.3637192598366646 -0.5615951937401308 -0.5327083741638929 
0.5845173120127928 0.5419224948585752 -0.603662013996158 0.015864878874399718 
-0.5773729849014938 -0.03539690350091968 0.4179500077757157 0.7005035949434985 
0.6361934527177849 0.5219805610234746 0.06013244932299441 -0.5649586473106326 
-0.6321397664500941 -0.1266804041488263 0.41051865043968666 -0.6448455850188392 
0.7517170541219176 -0.12958026550752003 0.2969255614899405 -0.574426354084795 
-0.6770876622077463 0.025196662595277277 0.695455677390582 0.23928816658020383 
0.1399238184028003 0.57334050978087 -0.567241120851815 0.5744036000083642 
0.12873111267718515 -0.7377642737039122 0.636966421765642 -0.18277295920925252 
-0.8740767520105084 -0.24095575548087358 0.4111709776501957 -0.09417315240334669 
-0.47471345673518767 -0.5800272216972517 -0.6045632117997531 -0.2696643821921304 
-0.5498497119562018 0.7418274999228921 -0.09374099518095114 -0.37224975546307376 
0.608694788759679 0.4121212822336008 0.44756862059630237 0.5092435887907334 
0.26339596379134284 0.6529253710072487 -0.7049248430187585 0.08597669363528024 
0.44167553411296223 -0.6586213240439015 0.5998237764351444 0.1065462871421137 
-0.3228386239380605 0.9443287118127445 0.06332058976372877 -0.003001641523553039 
-0.2730550111674411 0.010728549024280524 -0.7274429970226967 -0.6294065023455185 
0.5609063075664834 0.20431629546198668 -0.6418008914079687 -0.48138402687330667 
-0.4980987855943483 0.502441840191131 0.3995388482377446 -0.5829395386861675 
-0.4982679702071391 0.6736934265384071 0.45582310973214907 -0.3001524438326472 
0.4296992985924007 0.06181058847765905 0.7748389107223731 -0.4595243479640778 
0.6773495991310968 -0.1934777173460538 0.09286576450516792 0.7036617392116568 
-0.08281805840399982 0.5743590088606082 0.20026647807598008 -0.7893961210329669 
0.17105150293391505 -0.6028311157831119 0.38418058473243655 0.6780422608528028 
-0.5801491164879734 0.31691900646612636 0.44671877611741534 -0.6028529514258893 
-0.2321017751862469 0.7813535909965819 -0.48484111031420135 0.3170874162457911 
0.5873132377142929 -0.48144007616236684 0.3782560499898909 0.5293401312165686 
-0.7587342956221292 -0.5276165575220852 0.12991350975430163 -0.3592568953529696 
-0.6716530081321875 -0.10559180418787452 -0.33249848302409946 0.6535880708382047 
-0.5189829060355364 -0.45221457157804845 0.3404620684663914 -0.6405031650436848 
0.050180835776519835 0.7191746788952693 0.5804342918257631 -0.37863663033227685 
-0.5536890926580067 0.29735160304733965 -0.584351366814617 0.5133652626917986 
0.17217707345826297 -0.13125505758517161 0.9371727836906871 -0.2735586568601141 
0.3851543882900887 0.6399076660512417 0.6113306667448383 -0.26162777376848145 
-0.6719792195271815 -0.44789424450903836 -0.4196922168123338 0.41435868206961307 
-0.4777059836797571 -0.612456024765226 -0.6212054263089092 -0.1039154907109575 
0.241111233012599 -0.7681387635232968 -0.5445621724759939 0.23511753145240105 
0.38030461753126527 0.5613420704135312 0.6268161936490678 -0.3838814103958964 
-0.28749450168321683 -0.20584913195893337 -0.4013729498554093 0.8449099369151954 
-0.5981720712212533 0.28525036723501795 0.23423941174828203 -0.7113046458353708 
-0.3496761615413779 -0.5116868541872059 0.4076452052744611 0.6706180223632762 
0.5385457086735764 0.15903692208098644 0.0064268070767008415 0.8274264156014602 
-0.3454557688172615 -0.48448035872380657 0.5531797037288936 0.5830362846205542 
-0.2746001700191232 0.6414528486107528 -0.40562227657799504 -0.5904265901687556 
-0.4321673378792093 -0.4121324258382153 -0.6034939650813448 0.5283685169968987 
-0.38143269989143497 0.3183977571858075 0.8601291907723143 -0.11536784150681548 
0.8354657088831265 0.0936122916302203 0.038828723014174234 -0.5401167636773014 
0.18816384673450368 0.7587337449420194 0.6100878934107858 -0.12926806791285417 
-0.08923845082751122 0.20929784630609452 -0.7435950696537403 -0.6287267155228776 
-0.5509508784867322 0.6381641759277079 -0.47476980153785503 0.25257325591778956 
-0.7275114413977904 -0.14164013936691042 -0.07669522943391553 0.6669205464952406 
-0.38771911924266095 -0.624230248148427 -0.5280477492048353 0.4256478079703405 
0.5068306582015148 -0.6380874441817312 0.37638296370378505 -0.44079809677243453 
-0.5779748619156316 -0.09316735080019192 -0.64442293884875 0.49191867175786336 
-0.37491960735396807 -0.29316825875120917 0.5341468185782027 -0.6986950953635749 
0.29847722861012643 -0.7066354000444417 -0.43035176277312 0.47578894027007196 
-0.7008916046213203 -0.03172827106821497 0.37132920211447445 0.6081602576980848 
0.6032206704835185 -0.43518224618015716 0.4776051362982656 0.4675837562325307 
0.48231630375831797 -0.6323598234016623 -0.6047544757824566 -0.04200072496301231 
-0.7801186343325807 0.62062912281826 0.059356855731009836 -0.05206891543555015 
0.1382264603500792 -0.7947900283006559 -0.23739186506750776 -0.5411537295193488 
0.6391710514261999 -0.41239511240029797 0.462511085406951 -0.4554932866275373 
-0.4268395529610353 0.32381849182469213 -0.6099280889957046 0.5838983701248474 
-0.21956112617059817 0.38951033350192704 0.3887185465571837 0.8055882965463109 
0.9258958619710802 -0.2977975478809455 0.1389426491000927 0.18635561038502438 
0.6886598445731525 -0.06999026174962207 -0.25079026847466224 -0.6767224120502495 
0.5924216883665688 -0.47028658523676975 -0.44671042785718995 -0.4778251401327566 
0.5470183004844518 0.4621585624896445 -0.19075220771675705 0.6714119728630036 
-0.6202791131692869 0.36885681861182673 0.2985080669781401 0.6245729765835688 
0.38047437904855314 0.5794135002047838 -0.6335123394735791 -0.3437751567562319 
0.27109308505591073 -0.5143343917819391 0.5078842914916508 -0.6356274216246458 
-0.6646893541436213 0.15664739761058163 0.4033831811551637 -0.6090415950254205 
0.6652748614790914 0.09728002510943677 0.05866995184494828 0.7379050021169353 
-0.5451597318411067 -0.2818320287764744 -0.7866778191131144 -0.06715343066518059 
0.6266172888751742 -0.2484604047914199 0.14775017101115995 -0.7237320550450858 
-0.23102532536309803 0.9461241946016512 0.019284749490065898 0.22606283610394 
-0.668601700988893 -0.33621883215244946 -0.396971728675271 0.5313587384934674 
0.5249076610280169 -0.629395898649274 0.4562519304162627 -0.34665101492567846 
-0.6305468481993423 0.014934129405732185 -0.414765894821058 -0.6558634739776681 
0.7679602404667535 0.18420318039016104 -0.5994343308257706 0.13032551716320426 
0.42369741475823164 -0.6231959976060651 -0.4659010039621224 -0.46372783375818477 
0.3376678507310255 -0.3315793906578676 -0.3210668705257032 0.8203362694191196 
0.6629249430198886 -0.7162780789413553 0.21362186300632646 0.04291774919383905 
-0.0855651659737967 0.761377209538539 0.31782560234846197 -0.5585429559658072 
0.4013655611706116 -0.45728766179416186 -0.4778446176662691 0.6336072932380162 
-0.16761717368238901 -0.7190737997280541 -0.4371888357680412 0.513520472338904 
-0.42182535573189067 -0.028020124792173612 -0.6588224127059619 -0.6222790936425474 
-0.21471617529931408 0.3345161784675319 0.21451748000503285 0.8921760707285321 
-0.6339090391021448 0.731778480867372 -0.24581322016115956 0.04728050209164828 
0.4215669693956026 -0.1587693586199654 -0.6178268655939564 0.6444870403882138 
0.019365880945297193 0.7352137703439842 0.5655661108570363 0.3731228333965137 
-0.051599775967521314 0.39039369035164584 0.7191569074208126 -0.5724889275459026 
-0.36729815401435995 0.6108200587521024 -0.3781404148367012 0.5907628530559867 
0.3245640949134668 0.3084227862465858 -0.5951445391986347 -0.6673353809584349 
-0.393712636953251 0.6702369970263963 -0.5578887131893786 0.290745440232956 
0.10542024478078779 0.20442411056309223 0.5794748991626005 -0.7818607268889654 
0.04756583304909004 0.3246858596700173 0.8231589217071786 0.46338534037080076 
-0.24479781520298768 0.5350957420231186 -0.7987028748277842 -0.12577875131517643 
0.6160551796421502 -0.6979557490268405 0.21674622432401403 -0.2938619782784841 
-0.6546843314650934 0.11399737070437718 -0.5250418962303267 0.5317180012087753 
0.38003590362267203 0.516043633470195 0.2236614603234348 0.7343345501054455 
-0.5026939898370332 0.457873730852883 0.6422565707953327 -0.3537752060939349 
0.716691499342413 0.44523666572445453 0.535273323678452 -0.04000094027791799 
-0.3446113819759738 0.48185923153166516 -0.6374391188958836 0.4926723516715364 
0.2144455364769264 -0.7411783235452382 -0.4568247768318765 0.4426950732324676 
0.7960744631567537 -0.21065566491349472 -0.5666721609598053 -0.027790321025212023 
0.5248539692485762 -0.5459701394933907 0.608679572316367 0.23654618151715484 
-0.6768997189996449 0.6177691630523419 -0.3907476550936448 0.08651185836998841 
-0.05412058075233509 -0.4639918731962744 -0.1030578712151186 -0.8781580606744155 
0.27760374339245864 0.8303365183798979 0.24530426293098606 0.416297065191588 
-0.32856103745052967 0.4112488943646513 -0.7340813185018538 0.42900653768895336 
0.664894275973977 -0.495398582218809 0.5329581457644816 -0.1686756099023224 
-0.4391217106079238 0.3941100243063803 0.7324254832787668 0.3397091748214347 
0.6167502822864291 -0.33113795052556516 -0.2896823381615586 -0.652725738713122 
-0.7698053532686023 -0.20639417338882063 0.5938901605608284 0.1099801821201489 
0.034299078331249726 -0.8898317585914935 -0.4467405418120101 -0.08628964554979021 
-0.7480067987359679 0.40680736721988264 -0.366180432717931 0.37537379465661347 
0.656063024676316 0.4110688921342203 -0.6073746700796878 -0.1780440499362409 
-0.12177057634321228 -0.7645999040063519 -0.5519545071153937 -0.30968554310061336 
-0.6963256037881523 -0.5695606951795694 -0.17073733629874543 0.4019701854730515 
-0.6423926882502891 -0.5231081177265954 -0.32933966638099166 -0.4530175663251509 
0.8075453479250573 -0.018496065791879138 -0.5485614341150487 0.21589061951938032 
-0.38611044185413396 -0.5034740140283416 -0.6425869988004921 -0.4295516183905855 
0.5042987206296498 -0.5470467289439388 0.36072357324258847 -0.5624065970720242 
0.12717257234104185 0.39014193746449644 -0.8970955463122183 0.16381692910805587 
-0.38933478394263965 -0.426503113998384 -0.44861821465138657 0.6820961935423931 
-0.3784590014796818 0.7820053239526853 0.3211141071216228 0.376990965032507 
-0.1719902384836652 -0.8936904367195643 -0.06951359833035374 0.4085396196570081 
0.5269205669400325 0.44140913605564425 0.1154570246197573 -0.7170651059758503 
0.5401233269490542 0.18722522679026368 -0.4973011576345 -0.6526140243315383 
0.7641305035978543 -0.48434224632768424 0.41996027732170316 0.07176717470696717 
0.13784746535089518 0.08261139986125603 -0.7788513857762472 -0.6062705268967942 
-0.6390593184986609 0.3595828406510815 -0.6092768871324405 -0.3018029869890773 
0.013494168526673744 0.020179408536031566 -0.21087137111103918 -0.9772123432154651 
-0.46702436495669797 -0.6984423277584183 -0.31686375803980255 0.44007262602107916 
-0.5547258201968644 -0.5227133555092784 -0.5198905955164529 -0.3856990809850275 
0.07130959087163442 -0.36404254696086785 -0.9280754969424849 -0.032616533030413425 
0.36402112672140885 -0.6528144289113501 0.6469670474452899 0.15084952842335259 
-0.4258555763086288 0.40773590928400516 0.756886815231877 0.281994335644065 
0.3469730931033926 -0.4940394424403421 -0.7008003051258672 -0.38001793945943113 
-0.14355357034537009 -0.4663458155735443 -0.6162038341574295 0.6182287501465987 
-0.58073738986126 0.571795645244851 -0.3892281172263737 0.4292962809722064 
0.6518035761894724 -0.4443841888287007 0.45508742473194475 -0.41300148502943534 
0.5067079188564733 -0.332803809710562 0.7762701310254483 0.17289705864476482 
0.7520655768073659 0.2872960645653972 0.4874551544971688 -0.33800268019762864 
-0.047113750863700295 -0.5465198919947729 -0.6206944920051779 0.5602094695094052 
-0.16909830638286819 0.16730689628872647 0.8082270514153133 0.5386865494823379 
-0.6926678400717025 0.06994616446894308 0.7136540814379274 0.07756706423137377 
-0.3853279434834147 -0.8289605258561468 -0.10232448544278072 -0.39227098060143706 
0.6448599262675242 -0.6246107587735346 0.35029639312917193 -0.2670384101197527 
0.23036764386277112 0.43461032734872324 -0.7730800133052849 0.4004895817007623 
-0.43870707718371094 -0.6075166918339507 0.2713494324455814 0.6040108070916602 
-0.5764311667525114 -0.5138202756605458 0.49097469847313535 -0.4033108971695073 
0.5933141739595008 0.6090701467406218 0.3561422581333841 -0.38752359837791384 
0.4000322978345252 0.6480276069627355 0.6153646723791519 0.20337330525680855 
-0.5847985369989771 -0.6953488973444403 -0.04791727074332541 -0.41497532125445447 
0.4169475775896655 -0.24799078553441692 -0.8497993061712807 -0.20614661545352228 
-0.24740355333760364 0.1635811658077525 -0.26816239010630477 -0.9165814838416594 
-0.9162296648530481 -0.29792178171401346 -0.02281592714881849 0.2669180523905389 
0.5381122072717299 0.6605930322883314 0.2926138861014615 -0.4340843371256964 
-0.32821997739053177 0.4711463518827298 0.6596634050104694 -0.48490922206052867 
-0.08149565989999574 -0.9767546524928199 -0.15598436633687154 -0.12238334735403919 
0.6382371850754315 -0.3845977324602036 -0.3870842771537102 0.5430503127278804 
-0.5436935437229882 -0.5064543954263399 -0.5473720672273042 -0.385078038696817 
-0.21539383924542263 -0.46001206297135916 -0.7457457428936092 0.4311121465373138 
0.09968987836741294 0.1086956652401388 -0.8390807074885506 0.5236322629762299 
0.06262966511996786 -0.320198987400445 -0.5422002566998558 -0.7743184197404197 
-0.8945769344941124 0.19931882562075542 0.06267581986674746 0.3950643689682867 
0.7052428029836232 0.22857415583728022 -0.3650589336546246 -0.5631326833722454 
0.2799014582062942 0.3119004266173798 0.4802267886414187 0.7705553380783476 
-0.22982853582016008 0.6973657592631471 -0.3793226366978998 0.5630045996425328 
0.5576258466217179 -0.3549737245817996 -0.5794658827282003 0.47672461735258076 
-0.6447211309198109 0.38786901271896496 -0.6092485869444197 -0.25041655621009395 
0.07801881013470663 -0.6235939153409772 -0.4061814599565455 0.6633704211090845 
-0.113956548037022 -0.7625927392063243 0.6302838377400851 0.0906007900236589 
0.6297809968385871 0.6226090195809791 0.4213645330109406 -0.1954119624738444 
-0.37378211916841736 0.7662234638715965 -0.2099950694772073 -0.47863409991123934 
0.44569738527684494 0.5115616985911745 0.3956937881932437 -0.6189385230191898 
-0.6373561057821564 0.48974861471765907 0.4767673548604552 -0.3558319521118132 
0.5159711778969922 -0.28649669003106976 0.37129229224095384 -0.7168231468802397 
0.6216484028285031 0.6212746392786958 0.2456235684328485 0.408950056217396 
0.2982449489383517 0.8735894566986228 -0.19203685631833317 0.33318652042532726 
0.693998251082099 -0.5327706170706713 0.39191627155846026 0.284470619166267 
0.8061948254067242 0.047861344058662915 0.5831585151310216 0.08766607931521724 
0.5393610748539192 -0.4046042112126498 0.675587872076504 0.2982718396103728 
-0.13102624169796112 -0.16886212145243998 0.3490900480767041 -0.9123890870998477 
-0.3220619199155354 0.32905485914635973 0.7728755136830979 -0.4366491266011828 
0.6918202998966757 0.24985578371987216 -0.44754675523307164 -0.508584960329099 
-0.5754843032244281 -0.07021885621235809 0.6635459740936568 0.47285713406759866 
-0.6590183017136602 0.6042909182093248 -0.2808926942934264 0.34875013758958434 
0.5058413396169452 0.702255180450508 -0.37161325645245735 -0.33595503909564844 
-0.4166800340296743 0.4677215196641682 -0.7555732412143139 0.19163352119336222 
0.8826932548947246 0.19970268638141542 0.3109716053553664 0.29028970956289346 
0.5828738840971953 0.16464252973294669 -0.48612504335253043 0.6299470730673216 
0.5837535470459398 0.12233100673963755 -0.7931651022139502 0.12310987666017853 
0.4224961517612441 -0.717188832033054 -0.31524003298356207 0.45580796675631546 
0.031806388307491266 -0.5170675091005111 -0.8502170298100227 -0.09359779333108655 
-0.4279129135683494 -0.7757118783234568 0.40337919267631733 -0.22901276633660264 
-0.680918331416122 0.4346863577299105 -0.4486411288890004 -0.38225532542293245 
0.8528375583872883 0.4779921119336613 0.19320182144622225 -0.08285346174463085 
-0.10403547288124765 -0.4151061400484309 0.25093459531217227 0.8682714677749027 
-0.580380831998487 0.5418704307887485 -0.4402471789197004 -0.4191860536072321 
-0.13901022458193169 -0.46315701538200155 0.6559437240714329 -0.5795684320383723 
0.00022833834620368225 -0.7636262539865146 0.10058155033937058 -0.6377760138288767 
-0.6796593838361474 0.432640585731106 0.5043448459762391 -0.3106791300987523 
0.4721176323013641 0.7863248035361132 0.2969560928618736 0.2657354389731583 
0.5373475021844927 0.39627761607274914 -0.49727741991918223 0.5540188449270537 
0.5621149958739136 -0.41455184629435404 0.027636924853153052 -0.7151291481489714 
0.7249779955853635 -0.4495330767002589 -0.5210145548776918 -0.02950851529692401 
0.4579416441982345 0.0027558254310428723 0.674356556250664 0.5792452770432887 
-0.3346770195138942 -0.19859251237207548 -0.6985886006380714 0.6004384012516061 
-0.6684742241715114 0.7225783310679051 0.10022804195452129 -0.1448347565171407 
-0.38139674443465116 0.5365467345771595 -0.45378812348286357 -0.6006084114755119 
0.39159142546937453 0.617107092386308 -0.19122873389100792 0.6551843735619938 
-0.652933967503839 0.15581294902616574 0.6202985407561602 -0.40574533802773816 
-0.10474893996849832 0.17834847611643323 -0.6233086701625199 -0.7541258398587419 
0.3938127419694161 -0.53559498741089 0.40127687086045444 0.630100314739884 
-0.1316794326881805 0.3189287413800288 0.6720928672316995 0.6551611731054754 
-0.5862968079614047 0.1765280907691669 -0.7883498569416282 -0.05998657519624496 
-0.5112865773305078 -0.6134247806476086 -0.012451561799879374 -0.6017815491836151 
-0.47511965360086794 0.4694272944649156 -0.5861663519034812 0.4585938702923369 
0.017287193005185806 0.7207913137965929 -0.6425437450118943 -0.25941968055541365 
0.11291825147053039 -0.6285582877058442 0.2274308568433061 0.7351456677398397 
-0.06638613782695232 -0.09127282133645727 0.10289276066369162 0.9882688058381224 
0.5238894644813723 -0.2674558280318512 -0.5414477288770355 -0.6007008955804196 
-0.6705709888004752 -0.6855568722698657 -0.2546241288363028 -0.12455070002639881 
0.7125802820898911 0.5273709329678117 0.12093691137341732 0.44663576223227963 
0.19958314523671528 -0.34340582201112735 0.8491996902073274 -0.34799266615556895 
-0.18049614555641763 -0.2623340583997175 -0.1677868669939555 -0.932978858553163 
0.7326624157147972 -0.4903835033498209 -0.012539490695939567 -0.4717759695177369 
-0.6664239066468652 -0.6390568446640479 -0.2673199837906439 0.2757273149394726 
0.5747717960548107 -0.405706593074177 -0.1755722590969829 0.6886319224605065 
0.8437558593416631 -0.35264342917394054 -0.1959450096540168 -0.3540116027459312 
0.05011361224188044 0.3976230964366001 -0.8578303090527383 -0.32173227988301756 
0.7647221487824295 0.17607995716702296 0.6047197575888105 -0.13605108829911383 
-0.6580946287454832 -0.11397376396780062 -0.685285442561105 0.2903537548529154 
-0.0435977009337296 0.3078018352565374 0.43183522749915504 0.8466850695369286 
-0.0561489495878784 -0.1566749709156652 -0.729003758001813 -0.6639681993649902 
0.3896009389779766 -0.27035377823832 -0.7913544237209568 0.3858472741863246 
0.6291305977215746 0.5521729150060112 -0.5335708259977625 -0.12083847312972812 
-0.29833242975817137 -0.7230361309571245 0.3604572794831616 -0.5082195041050036 
0.532070628163865 -0.5211688718611404 0.08522628414070078 0.6618310465215915 
-0.5940901072899208 0.7658225092660786 0.10033061423806129 -0.22473672723493743 
0.5252134163085695 -0.054575803110073415 -0.3931805729346285 -0.7527160062807016 
0.05696536897452209 -0.8764455163674666 -0.46372343019352896 0.11644219109287053 
-0.024291222815639852 -0.9099791071669096 0.3105352327818486 -0.27370756331339857 
-0.8464930890800799 -0.19942703793849204 -0.4682741250934408 0.15619747260028136 
0.27297310029786204 -0.6837776070355823 0.3027093181463922 -0.6052280060752413 
0.48227985237768306 0.053376465365688144 -0.6949021605051483 0.5307241131330881 
0.0624731088024617 -0.4485640794096611 0.7855256993229291 -0.42170695161823224 
0.677202765097636 0.6187272102364205 0.3975775387150739 0.022475652747723736 
0.5859898565607673 0.6009404310187848 0.3699131272619207 -0.3983098852076791 
-0.5753693926405004 0.5436568608045319 0.5052358964590355 -0.34369167671315304 
0.4391501011300243 0.49881914467145766 0.5671297695334072 0.4865084522346031 
0.43098106853056317 -0.6680241331981879 0.37217508902121027 -0.47904569630163446 
-0.4250692447341111 0.7187167858236262 0.25074630201624504 0.4897842494218308 
0.31149982114318314 -0.5551281957321528 0.5255198287306326 0.5644727250646007 
0.3205044149738065 0.5702303800777642 0.5757635209283516 -0.49052074531751916 
-0.5248861541473603 -0.6197688897316382 -0.514509060320486 0.27506631082947325 
-0.516530277906755 0.19369027518537352 -0.8307762700808685 -0.07410356519564065 
0.12876843841336108 -0.6741563248863889 -0.19563694364762976 -0.7004699316633628 
-0.8114068259359761 0.256470857638648 0.25397256242273797 0.45971686889109187 
0.5921426973483712 -0.2671531460851402 0.646419885411701 -0.40017190588312235 
0.04158813681043095 -0.8989452536347853 -0.2984923292326346 0.3179153774723786 
-0.5633052162415918 0.31086680183737003 -0.5226707732416259 0.5593427640270495 
0.4395056058447777 -0.7425715011903173 -0.4939266415958387 0.10704606846040221 
0.4018360000695395 -0.6923605548246634 -0.4155091773211399 0.43187592516011675 
0.5631976983191679 0.023581193049419025 -0.5134392744422505 -0.6470180765655416 
-0.17988722465196805 0.6099299890297556 -0.5665827155363143 0.5240324621096203 
-0.29402199891385794 0.7080169524254991 -0.06083359707463793 -0.6391888083342577 
-0.6414171527611779 0.29754642244619434 0.13120058323584488 0.6948644253318692 
0.9291306089429722 0.23927364399884687 0.21906237295034142 -0.1774150827019523 
0.34652043500644353 0.47951139471773413 -0.4735816299758275 0.6524667426070366 
-0.27944215269745076 0.5246286176550563 -0.43185053617451397 -0.6783671655076948 
-0.49322429438424975 0.664427121991843 0.25492184875346185 0.5002811669640509 
-0.317480601656165 -0.6590442655405709 -0.3279217058967629 0.5977742704666084 
0.6303242053834844 0.21944345463829298 0.05184994213268961 0.7428644222366063 
0.6663600891370937 -0.36722175297626786 -0.4393350313446317 0.477595169552261 
0.6847244682267205 0.36268608011042947 0.4397982532314869 -0.4540800660239328 
0.359563143519204 0.7501155536764591 0.12292515729849955 -0.5412304570683237 
-0.6967356419069143 -0.22210627656245366 -0.6820626661830623 -0.004332044249052232 
0.9046532854612426 0.30483637418155923 0.22703928124383943 -0.1926924566564579 
0.22929571258621934 0.2751347832743442 0.2267287567223232 0.9057143026900409 
0.7686760751242221 0.6245517542743754 -0.042453916513831055 -0.13141484975853526 
-0.5591652843288277 -0.15271759263332713 0.7738683964341413 0.25522387565075727 
-0.6088503786418813 -0.5498596527616108 -0.5319327335473599 -0.2097692677046662 
0.17071156412959884 -0.23623904473871576 0.15906978115848092 0.943263208407684 
0.15961398265464047 0.7148925305389315 -0.5929390728362262 0.3344776557931541 
-0.30207525691399484 -0.6249104274241027 0.6370083416831539 0.3353473862773458 
-0.5285894411031858 -0.5034989501855588 0.6804827840381523 0.06344438938115189 
-0.6329880031036563 -0.5644995313942874 0.2953457521769304 0.4398151357712907 
-0.40562457296847826 -0.6720027817131988 -0.5117991894511887 -0.34920274462118556 
-0.8069199115889361 0.3072939544573628 -0.4723500606519142 -0.17702006111566287 
0.36478009112671983 0.30942989073622307 -0.5747394997581406 -0.6639752519893443 
0.9225221834528368 0.13455588822774672 0.10101185486675707 -0.34733865197675573 
-0.7379068931412559 0.4715754570698198 -0.15430600028925492 -0.4574928017124883 
0.4879107937876537 -0.11339125093658323 0.21255380888993758 0.8389912751887938 
0.45295982137779545 -0.4963577261554216 0.5587658870995951 -0.48604227317900817 
-0.5812365287238471 0.5102940844032698 -0.46812000048842844 -0.42734963465854847 
0.14212392315165112 0.7020709290424356 -0.0022395735069183926 0.6977766013359735 
-0.07791897805314776 0.22371525547019497 0.7901997237794192 0.5652119194319845 
0.092971354969947 0.39598335911224675 0.3220209511799323 0.8549011717516856 
-0.30182846464395396 -0.6876039306536186 0.5192744934315061 0.40798825099728037 
-0.4685486633646031 -0.48127840889475787 0.15629323266701933 -0.7241585935507959 
0.746520746992449 0.4355776192136204 0.22006513641166608 -0.45227231585201516 
-0.6220801378118453 0.19488577089086856 -0.0482511696647289 0.7567745126986326 
-0.3158516361932363 -0.5175834774788759 -0.7861012311129163 0.1199580851701411 
-0.8260155910550381 -0.039290329158210784 -0.32203586045746674 -0.4609201860930531 
0.007828196389966067 -0.5686325314266746 0.27015763231764434 -0.7769238168862481 
-0.20088767593782408 -0.5535726773522383 0.376643879455471 0.7150809888495899 
0.7082433629218964 0.21254964145519456 0.2924339034360979 -0.606379749757096 
0.42298271427867845 -0.534591292788744 -0.699673156039239 0.21390476342052842 
-0.6508096095009227 -0.5329983433915085 0.3444401220461344 0.41679805715479035 
0.5348862656588026 -0.3118936283280506 0.7512727129046639 -0.22849148400500852 
-0.26794847740112016 -0.7293369563789056 -0.6196428598816119 0.11096821038528419 
-0.7342080184486994 -0.40864359563004454 0.5109660817976038 -0.18128061299705261 
-0.20869725583965482 0.6866906240440874 0.6571445982551851 -0.2303528146973052 
0.5191631564104325 0.2539189477552095 -0.7148503069090746 -0.39367984925424604 
0.5672149991099632 0.3770761499830681 0.1328474505828184 -0.7200224140763097 
0.03307162072617173 0.7504381648464842 0.6274356956750656 -0.2051177136113109 
-0.44936865386556585 -0.5301131193773748 0.571812444029832 -0.43597984178132443 
-0.7725382356587749 -0.5810183863769501 -0.09332803403541572 0.23852083179512112 
-0.025924035664907356 -0.7630119007527086 0.13314904373896705 0.6319905979015682 
-0.8219235119109815 -0.2267612475118203 0.18085394988040956 0.4902172232872441 
-0.5895937491447986 0.38280290496700425 0.4517431313984999 0.549335316680514 
-0.17093139586379733 -0.3483264662243976 -0.8063130758286081 -0.44644188264933954 
-0.6399647493766545 0.1913601903035821 0.28325734363922966 -0.6881799723885461 
-0.3953819105062185 0.6811984884730873 0.259015836730021 0.5590640039114313 
0.8065380303895028 0.5822496555630642 -0.04933329984200583 0.08971047686203158 
0.33602645062153463 -0.8202860146879462 0.1812633326757142 0.42586462968571737 
-0.8683846002286418 0.41382057411876905 -0.2604153063764015 -0.08273201754241974 
0.3869523933868787 -0.2337778521570634 -0.23537922744210948 0.8603559614379109 
-0.08343751102101303 -0.9471229488237091 -0.20758493073900666 0.2300104304073661 
-0.41781665592280975 -0.6445737681924557 0.5464215257215954 0.3337325510341215 
-0.08488304446333589 -0.16706660434505083 0.6948144081952675 0.6943461360441993 
0.5447857039699269 -0.10321747954781801 -0.45692511365625965 0.6955387330523017 
-0.4947359749590229 -0.6639199103521913 0.49053708345491803 -0.27169843112323294 
0.030625258861668714 0.9954407970545771 -0.08899396993914063 -0.015485037729215518 
-0.5438785680885124 0.6825579524180497 0.46490618991380017 -0.1489059412673052 
0.2149717361101151 0.5574322911212711 0.4379820558094665 -0.6717351503963499 
-0.6021070095438471 -0.6450455833830071 0.20693412890296733 -0.4225655105559515 
0.5691237841584207 -0.5373711532079891 -0.5236040648181592 0.33640622067823905 
0.5181045483199861 0.5172052440017508 -0.45407117810140407 -0.5078245541570785 
-0.40846354985634153 0.15943244854430424 0.5675209280248342 -0.6968922578446074 
0.3601387365482038 -0.0008505565475573745 -0.18302192930358868 0.9147690093050894 
-0.021976505810797107 0.3480456380343596 0.8430307322926364 -0.4094880357809551 
-0.23539205670865604 0.3052713914001381 -0.7240735269664954 -0.5719418543675505 
0.007313077968139897 0.5124998604376999 0.0778323931251998 -0.8551213542663838 
0.5315891876766985 0.05474961362840727 0.5496691211051117 0.6420897699358729 
-0.2818444838280371 -0.5460741118780382 0.7083182429120678 -0.34734999356597085 
-0.2658960931366647 0.24713415639315497 0.6436391350436969 0.6737600761685896 
0.053304760639765615 -0.4316629484840899 0.8401362692404648 -0.3240320208033036 
0.3029771755492378 0.7295014144643492 -0.48343048265028843 0.37726315197117943 
0.45886203276387744 -0.6024796762198669 0.6512207029308581 -0.04873880080639432 
0.8021898131164223 0.5746461367115832 -0.08351474484738794 -0.13891943236195364 
0.04023263138505791 0.7133963212523682 -0.18956249363640496 0.6734338016477716 
0.14149087371856509 -0.03348247030504989 -0.9085330857151844 0.3916974457377455 
0.9063503938109405 -0.2241319658813007 0.051091567051504506 0.3545186557646268 
0.39383795178460046 -0.5660413036827249 -0.711692941352835 -0.13409723146963876 
0.3983000298924168 0.8973531199240982 -0.04533155470025093 0.18455219992903116 
-0.479742049582009 -0.5501346957397365 0.0835328052070751 -0.6783963832896204 
0.8224706341815018 -0.49065338771465516 -0.26559309277498305 0.1107321909086515 
0.5375500869367412 0.45483664720535744 0.4032766703431452 0.5844069263366386 
-0.6326494988367409 0.49678764318705515 -0.330942555402164 -0.49338998188264555 
-0.44438775047872153 0.687383786665686 -0.21540840605460929 0.5325619923113335 
0.2612422605883219 -0.4609909389295324 0.7730422515492719 0.3487771678696927 
0.6979790205111481 0.2879684858956766 -0.3341270510433434 0.564144087816516 
0.46844737759337957 -0.16584535427035385 -0.7553798126529779 -0.4271460072728979 
0.5092614264906444 0.003277841705771602 0.7462931708015277 0.4285890321245606 
-0.4746563758250189 -0.6255874564497529 0.614834423785442 -0.07294032183785927 
-0.2993137523181811 -0.4202410975154145 0.7039353606496654 -0.48814312005730026 
-0.4393623796804864 0.26192197820971 -0.6612005263505313 -0.5487908896893174 
-0.4895633415489988 -0.17127305980129165 0.30879776870954967 0.7972685944132535 
0.4688097917819008 -0.5221816998365089 0.533777298551977 -0.47183201145727555 
-0.6318390051784203 -0.4855240971160788 -0.08492112306491792 0.5981924652753107 
0.18987351769456115 0.9463696376217506 0.1873803073319942 0.18226677341231684 
0.05859608175652422 0.7571955845114198 -0.435664575581499 0.48313323584968193 
-0.7413518517936674 0.2525929436993362 -0.34404715820539555 -0.5179051936080539 
-0.3540700379012186 -0.09628753101541225 -0.8809513473594717 0.2988107146959712 
-0.8658468417055328 -0.04756358717937181 0.47913971329685123 -0.13591205621649363 
-0.5155537177705051 0.26433013532509086 0.5786171470248552 -0.5740523850841894 
-0.6069633830947456 -0.07579047519210597 -0.5681325274013271 -0.5505240110666528 
0.7356287279539406 -0.6149965685865243 0.24457949989749747 0.14425832199758087 
0.3600133804899272 -0.7576855349645255 0.36596843196357637 -0.4029517375317506 
-0.5911700022204304 -0.787093816465552 0.04065399034911386 0.17131434739998372 
-0.17079528822063206 0.24496616933934834 0.5135489694350257 0.8044178027574104 
-0.015176367317520608 0.6789594177956402 -0.7141494756825036 0.16962993027191287 
0.3221679086880019 -0.8395819515008359 0.29942988378201163 0.31882868444344603 
0.5026728508528251 0.2280206974200944 0.8338582916793033 0.0026298215188824306 
0.483876204157582 -0.5593693071125723 -0.6716943501877718 0.042385106302543545 
0.764725726289626 -0.31374317238108074 0.3838806925943731 -0.4115767233315363 
0.929350810693604 0.1468103233639188 -0.33281992478875555 0.0631244586553373 
0.638290403055084 -0.07728987118409883 0.6387489605469577 0.42262442260274646 
-0.6215419850440147 0.21107119397336452 -0.47628079032687226 -0.5850565106618457 
-0.06565952105475667 0.7040951585013627 0.1352517769230101 0.6940070546536029 
0.42080214413345696 -0.022875876928309734 -0.8922285371898395 -0.1622667161543772 
-0.029389472443913368 -0.5420258924789725 -0.5453642061666808 0.6386877746004129 
0.0522171904129751 -0.06887064736030354 -0.855876914138755 -0.5099067628516706 
-0.7063448564447525 0.14108675307227597 -0.22419481170178063 -0.6564359513978252 
0.778376817259719 0.14527135494929846 -0.5627160127592755 0.23743726069875395 
0.4697368894563021 0.6544493865494792 -0.019412940718419737 0.5921709152445699 
0.16909487932691894 0.15281334501226518 0.1486191865893411 0.9622719681821246 
-0.2265823214503017 0.32147017351454904 -0.512854831935874 -0.7630840717160491 
0.44664479057556067 -0.8850071321493362 -0.1069744453404546 -0.07633659109904495 
0.03163831815887262 -0.1975218693211569 0.6991376273494448 0.6864333223177198 
0.6023678116916406 0.6259417644127487 0.4654125440143965 0.1695319759683306 
0.18160199447114334 0.4054617252353746 0.6242255680598744 0.6426227082461243 
0.7404671263608797 -0.11864333121964096 -0.14197541759038357 0.6461231891334686 
0.6651074587006852 0.4771024061721907 -0.26563366360711965 -0.5093565736928128 
-0.7567760845284907 -0.23778945984004704 -0.45816265712374615 -0.4010400357720089 
-0.5665413211409815 0.36999517382152985 0.06132583188875321 0.7337394940520507 
0.3353651119577638 0.7653139598570428 0.036005183225919946 0.5482047166071787 
0.5776435375886675 -0.5305581822517972 0.5276984809503116 -0.3261445568002817 
0.2683231932801145 -0.6264670396231068 0.6453901226835524 0.34498304560707327 
-0.6185664351637523 0.0672781538598565 -0.5995800306397534 0.5033418343035367 
0.6091463261280587 -0.6156880770088858 0.11184652361321068 0.487195341058829 
0.3804639513807949 0.6522683316145073 -0.08014016996545154 -0.650669469416268 
0.3003050743317276 -0.24809415023173406 -0.9188677226587123 -0.06283520675068109 
0.7658103881008248 -0.3549467671186964 0.2841680916079847 0.4547479936192419 
0.45339026212321554 -0.8842884456377627 -0.10680605547436832 -0.032614132479611875 
0.16742188221146023 0.47227108496530285 0.01791851731791918 0.8652218573288559 
0.24685356721649912 0.5512028949095497 0.5356485213103153 -0.5901858576871306 
-0.6581115331422616 -0.5983511810021571 -0.1114370981873882 -0.4432232476822942 
-0.23815112497905208 0.678084227489426 0.6658252793811767 -0.20040588673553977 
0.11874837740526206 -0.41313419956713987 0.7202025850737509 -0.5445431043220752 
0.5006442478871648 0.43790484476618824 0.5520846079505736 -0.5027894884062886 
-0.5890490290250874 0.1748150455861978 0.6256312196867587 0.48067298467311037 
-0.11853960384980693 -0.42695165266082064 0.6064047459372437 0.6602529308637045 
-0.5476529143907675 0.6526323272193046 0.35754770247197354 0.3825009428545586 
0.5018767979056691 0.5431697380737671 0.3718734196741172 0.5610672643317424 
0.5811813800111847 0.4023937741748474 -0.3618616388762685 -0.6077529171821373 
-0.315396899613447 0.027949084529836642 -0.5008573083241333 -0.8055343574835733 
-0.2018813828566115 -0.6463093474803301 -0.12923048713087926 -0.7244498711514606 
0.2781569409548367 0.5023195804970898 0.27966454474046715 0.7694748193820137 
-0.6232569013275385 0.28860855503805827 0.49579172608198235 -0.5314569608680344 
0.5818873531816974 -0.1327341110133861 -0.5732688930454927 0.5613835945653204 
-0.24369562689904642 0.12520335601576635 -0.600469641589276 -0.7512474762701811 
-0.4323140006964489 -0.22755386367552538 0.6298047561580232 -0.6038789721864012 
-0.6033996722982138 0.40316920673638446 0.5897929713749712 0.35427062696001926 
-0.6707864483246606 0.5231805922170911 0.47245324467927347 -0.23046808946877556 
-0.3391899334228636 -0.3288957342947366 -0.8813489134712336 0.001370310328206356 
-0.24861470912347913 -0.6583220175656066 0.40016062777686545 0.5870897031740737 
-0.28025575962588106 -0.6482908315356407 -0.576287907785889 0.4111787376349983 
0.5415056345807968 -0.4748253044127496 -0.4613610890232031 -0.5181298327078961 
-0.533846849824905 0.21747768174151602 -0.3062034779335659 0.7575951616646911 
-0.5713534022693608 0.4103320844664622 -0.5629956376753762 0.4338418860957652 
-0.5208221733124021 -0.3745839742776013 0.7042603062487075 -0.304053500297267 
-0.5015431205856757 -0.5627274357412231 -0.26333826187496817 -0.6020342939484101 
0.11221022941624745 -0.36217699750173793 -0.7017363080930179 0.6031607089316747 
-0.4894519902768588 0.6738473726215782 0.4257187126093497 0.353737254695142 
-0.012302186188230098 0.35054238709895996 0.37940246209308615 -0.8561673100625001 
0.8229761997908359 -0.4081748830284976 0.3712785874230746 0.13511347069642188 
-0.220118928284371 -0.03299567344028731 -0.7631640553273861 0.6066626472772327 
0.27985564641845667 0.636852106166734 0.46117645571256205 0.5508325414634668 
0.5542983788016468 -0.347240292536833 -0.6904227147056103 -0.3090209726140546 
-0.037201198194762586 0.5421788485900461 0.5386761477665181 0.643806007134036 
-0.11006798454515286 0.7380387748848491 -0.25165788345610834 0.6163214382439012 
-0.609758023377772 -0.28481425285610507 0.4582569629819371 0.5805829399620891 
0.3797996852713754 -0.00891041942322705 0.6104250333653746 0.695020922083895 
0.3253844944619727 -0.3352231882415441 0.6074501738776341 -0.6424598283822366 
0.40674738984728587 0.6815055169455463 -0.24852808340332996 -0.5552842362115742 
-0.6171848811617033 0.28662697243018 0.666092353948125 -0.3053666274378534 
-0.14447083914129452 0.5243134648608677 -0.280675103138945 -0.7908508416138561 
-0.5484250770823286 -0.794998998034574 0.24131846493292358 0.0947202535558408 
-0.1257542430066003 -0.546555540971219 -0.6348615979639856 0.5314260648764887 
0.05862833575113446 -0.6987108059857989 -0.6042853933580444 -0.3784244854919419 
0.6206684569420301 0.10279655145892425 0.6622244196993925 -0.40701640448408827 
0.6753577473312611 -0.4012288363735321 -0.20343817914895232 0.5843973316559072 
0.6761972882790206 -0.3840847041306296 0.00579037794564915 -0.6286514446815761 
-0.525988563425511 -0.44596729162317883 0.0944319087098495 0.718005446055438 
0.5773030514486305 0.7905154873245753 -0.15869455182340672 0.12892823705324385 
0.33011452684411474 0.5968419623614749 0.5372829185726968 -0.4961160514849271 
0.5429394463402221 -0.33093363339083276 -0.32465544251252265 -0.7002132043495846 
0.8604219351517672 -0.15904287129639774 0.14470945357908027 0.4619941911369986 
-0.9262591546999783 0.3355639297697039 -0.14355797782358387 -0.09397837184798573 
0.28014900511045376 0.5056806665373587 -0.7499038656474661 0.3216330062554881 
0.01105949689359101 -0.12560222940517526 -0.4248714573857609 -0.8964295913209303 
-0.5976271871227934 -0.5502444496055557 0.41869793706708225 0.40591234076552335 
0.39456674071514924 0.4168296249463821 0.571098020621975 -0.5868706856967254 
-0.4241905406407563 -0.10843900669238406 0.8006256893025661 0.40902551593667497 
0.70647780061604 0.33629442916549396 0.61445841092908 -0.10117329384519969 
0.5262672121761078 -0.577860726668212 0.2867591911766078 -0.5539756025662241 
-0.7415168737283592 -0.4049015755439678 -0.12195936369154528 0.5208966823719332 
0.7103371841775803 -0.5855408510392535 -0.20244306500511164 0.33403562979153806 
0.6209036199305623 -0.5376243318662759 0.1825639453224618 0.5404712558598851 
-0.5055157869779402 -0.8410064653476982 0.04425770029774764 -0.18762507914401982 
-0.4206850582526993 -0.20288807953555213 -0.8841946439465737 0.007767918736050603 
-0.2561525303410479 -0.20661545994023275 0.4675793247570387 0.8204056971848236 
-0.4700105691111287 0.36266578159783275 -0.6679517057759432 0.44878069759390715 
-0.28958191466814465 -0.09166594798602143 0.7191902410270921 -0.6249040453448422 
-0.3729200705756693 0.6417320261745887 0.4920793023295592 -0.45493800430668496 
-0.531985687929014 0.4934040344879669 0.46088474145029873 -0.5110077706727973 
-0.6372824299230431 0.4466688637147681 0.612871457883257 0.13691824864199292 
-0.0013993034715023588 -0.7027904674303449 -0.6393141662948398 0.3120272385763233 
0.07332019111630327 -0.20540598941499938 0.07975963859934564 0.9726617753040446 
0.38116429857099937 0.44937237005224506 0.8079387478928685 -0.003637331688216756 
0.1265002907813999 0.7169028979083354 -0.5494932834431161 0.41000614977553146 
-0.5159625640785029 0.42351904872248314 -0.5929976107032415 0.4502977698578873 
0.47619186698856336 0.3287595945448645 0.5185764878834347 -0.6294734792055378 
0.008492991299803377 0.4083267749865154 0.7635214687298677 -0.5002320268800057 
-0.29129644702274765 0.22234978336001812 0.5616724696967564 -0.7417755661764701 
0.10802430764608016 0.798718356570088 -0.35228274763426976 -0.4756854018727212 
0.45843934228348593 -0.12752370391491147 0.5289841464469318 0.7026712226883335 
0.2683825566593416 0.8663418530316361 0.19997629623063645 0.3707183269175976 
-0.4615526327282964 0.31630963380878796 0.7180780601851254 -0.4138614288165743 
0.8170180270627012 0.018211870209332546 0.5410067482286919 -0.19864936347510984 
0.44288648791293267 0.5104527881874352 0.5518480673665137 0.48862380253080673 
-0.7141206825575422 0.3343886254038872 -0.4377409009614197 -0.431970834165379 
0.10058576486351731 -0.4038441230079609 0.5867165484133514 -0.6946625943842634 
-0.7566473615620105 0.010407289587749544 0.4226384811706969 -0.4987516143316344 
-0.0594436691104275 0.6463822105426031 0.641440898658167 -0.40891326907469144 
0.5198384996102661 -0.5578323677182149 0.6469490819052102 0.006918762233470824 
-0.5531409938486553 -0.7275640563794665 -0.17230581685312044 0.36741841307609663 
-0.5129117042788439 0.6107796287517702 0.07768388398132323 -0.5981931484773105 
0.5900918367295624 -0.7346171260089642 0.2031322392515474 -0.2662078056258179 
0.6009161545213976 -0.43804487300870915 -0.659973908708984 -0.10700889817854092 
0.42307736478950103 0.08210654532143467 -0.38532391941620436 0.8159592733365344 
0.5457757063599636 -0.678843479654203 0.15238098634796257 0.4669908387515526 
0.6666856369071742 0.028358270588938354 -0.7170798234385007 0.20130225246700245 
-0.43465583835002974 0.7332460967477505 0.23513837412848015 0.46704861503342054 
0.6717844657472238 -0.6237250545171606 0.36433286663826436 -0.16411657513921907 
-0.8751773459614391 0.28337736968632266 0.08138754772567265 0.38358564433611697 
-0.2492786485235261 -0.7919335238120336 -0.09515809785714045 0.5492234387434228 
-0.2136258118043484 0.6839897106170922 0.5333984093232385 -0.4494532514425928 
0.5447559650046792 -0.10232831582035636 0.8265346025607058 -0.09803267385421184 
0.1913225657273726 -0.6766318030238542 -0.2119106480517798 -0.6787186134345057 
-0.03593077836220151 0.6342018866375921 0.39021725124959705 0.6665038956966526 
0.5985028172005711 0.07305038515657865 -0.5657933924550458 0.5624374241510481 
0.27138019610457614 0.41934623091510514 -0.6381261816755657 0.5859150996856969 
0.7279752851153453 -0.49482352665252216 0.4725595159183332 -0.04346453321299149 
-0.5333897295978308 -0.7663878046849232 -0.2379029548993504 0.2674832952539931 
0.19086890107229865 -0.6899953200886765 -0.6569860711112692 0.23631509309596863 
0.7803981828156208 0.36495689955348437 -0.051881790305744184 0.505067735616774 
-0.25969712115114574 0.8967969648860199 -0.26545216689192735 0.24051560475239459 
-0.6718282512414832 -0.11210704539810876 0.0550795399472053 0.7300993463119393 
-0.7340682738649589 0.19710543289479948 -0.4345446201464505 0.48318132282824255 
0.9154326865541145 0.2788539073488293 0.08200040746705037 0.27838719065331374 
-0.7289456989482206 0.27202266543349185 0.5681477332445326 0.26804848569698736 
-0.554346957687814 -0.22094446108189128 -0.2621645933292127 -0.75838823937613 
0.37753074320523244 -0.32999664736621437 0.8274398332117826 -0.2528162832501506 
-0.4123122105510111 -0.679892713657917 -0.1157447637998184 0.5952711051263422 
-0.7084832544536138 0.5162502304238337 -0.20933773563690647 0.4332607646493822 
-0.41628199694472623 0.6057643926606575 -0.6495854055778901 0.19441604991456796 
0.1409343818317173 -0.8379008665851834 -0.4869040706608294 0.202445211767096 
-0.3001064571336778 -0.3218504671398228 -0.743457498428702 -0.5036063335768189 
0.789235338565298 0.28722705796195636 -0.43357994080933665 0.3265220244669728 
-0.44861913229530886 -0.4612960460000336 0.6424150833361473 -0.4162327387238421 
-0.21343854026665154 0.5472976057611039 -0.47965258172915215 0.6517996019464598 
0.3365135726292674 -0.3217652388311966 -0.13704289811144493 0.8743254488995535 
-0.47995344244797983 -0.06677174331002383 -0.24906460252140336 0.8385422178689212 
0.4988497499613075 -0.45952250646754544 -0.02094508170142818 -0.7345401939756913 
-0.4813078640135488 -0.5540558793132441 -0.6789564178245636 -0.01957052201602437 
-0.6391485459773604 -0.08624492167191587 0.7619230102182499 0.059365614296424 
-0.4061046348501826 -0.33133048633858947 0.3334725741481347 0.7836422504350121 
-0.486835745740754 0.41017929314624946 -0.05695553409503638 -0.7690903531309154 
-0.6931406384974904 -0.2489492436927763 0.2522436807896496 -0.6276571156529458 
-0.09070658574583083 0.3089010517149095 -0.7192065450286905 0.6157064244748882 
-0.4320431616301222 0.7254432484378438 -0.009269718601987345 -0.5357096901322926 
-0.6728125496985535 0.028337681713979573 -0.30919593443536403 -0.6715043729506537 
0.495394797400123 -0.5570479480899039 -0.5292869892319476 -0.4051380767929607 
-0.03218085601314629 0.459171148337525 0.7030192523519112 -0.5421163895910354 
0.6148849419529535 0.2748767436281315 0.0005995675343752938 0.7391609597987973 
-0.13634419481027674 -0.6626586021186347 -0.274137509071686 0.6834782101133039 
0.6055061687403966 0.22650049067636366 -0.1166414937715928 -0.7539592623420872 
0.6442407823908545 0.5819944452084274 -0.14599934934927666 0.47425780967796655 
0.4254811844322681 0.33183788156741173 -0.3033850061934552 0.7853705622621489 
0.5345558316521336 -0.3132790582164917 -0.6769321542438008 -0.3973275136213585 
-0.5866163434780045 -0.0697812703509067 0.7468639584870459 -0.30529668747919597 
-0.5559234772649104 0.05841519973356074 -0.5272740636809259 -0.6399365700092327 
0.6852477912202811 -0.10925747350633488 -0.20912928786618185 0.6890306307177658 
0.48245876014181965 -0.6369619151500933 -0.5970144593596265 -0.07132179699275844 
-0.34411481974583674 0.3500636255644027 0.8058998556590976 0.3310073587348802 
-0.3266927539678724 0.45098137576518216 0.4311910204414751 -0.7099027729967466 
1.980485896556831e-05 0.8375140029540586 -0.4241310681435157 0.34450418212131645 
-0.34102837571833305 -0.24073749036465147 0.06758512932844472 -0.9061883678250908 
0.43646157849593537 0.574475936073859 -0.525242791479395 -0.45121912566715594 
0.6632902188058588 -0.0893180955829408 -0.45099002939238797 0.5904882359764382 
-0.4932186846050706 -0.30833397221359066 -0.8131906947298816 -0.01965667164514528 
0.3353172991871114 -0.5597378735568526 -0.4919547669286663 -0.5763994526958505 
-0.6885567033766786 0.4256555697860572 0.24977652963793484 -0.5313366987016589 
0.7178315771976682 -0.3581134264797011 0.37105245416780297 0.46775279454956376 
-0.6048165364958443 0.41428678532475005 -0.6668031159208408 0.1339291651758987 
-0.35260301141328415 -0.8034138044399721 -0.4786061380950876 0.03366808214436019 
0.6286092998094903 0.17172881181114433 -0.34541056884081156 -0.6753155575877265 
0.28687461855148777 -0.7452838359320982 0.5958639467622792 0.0848593782569462 
-0.5725973898454879 -0.05339126765088776 0.5863086564831281 0.570546896419317 
0.8551580344321241 0.08719930055220362 -0.4248746393616481 0.2838706729422781 
0.31391038465063203 -0.7112255365761274 -0.6192356818502948 0.1102981271549631 
0.778542916853832 -0.559029979708317 0.11311974949533947 -0.26184027703574797 
-0.049049476239455804 -0.4691089388288373 -0.35524934785822604 0.8070494738476831 
-0.3730256243338291 0.4082166131710111 -0.4124169345783276 -0.7239636402434597 
0.18351589388652584 -0.09265821749501316 0.8276528837802437 -0.5222327789328457 
0.15341228305099297 -0.4087806429372829 0.8984399632947321 0.04656919286206417 
0.046798576566597756 -0.5639327689594122 -0.5600788416230975 -0.6050631508291013 
-0.6337056823576221 0.10441846691152677 0.452530831040535 0.6186515488328383 
0.13725592834329586 0.6803784842344539 0.5193350976237957 0.4985348380018487 
-0.13265839389702244 0.333617850364668 0.21572968501997564 0.908053733788867 
-0.5991047387645629 0.38773429406001103 -0.08864122550782394 -0.69489449727286 
-0.7182057402811957 -0.3491275116710451 -0.5594408465396511 -0.22207303853579885 
-0.6636439607135065 -0.07283979509176919 -0.488385064671259 -0.5619173304548712 
-0.2295168890497727 -0.47009049418465154 -0.772693988707165 -0.3595565668068877 
0.40967594942882024 0.23356835345270632 -0.03831837120490915 -0.8809898655224073 
0.7595984263317747 0.6027722035219132 -0.03052043211843876 0.24237245016489084 
-0.5408455813211239 -0.6183213438269778 0.43931768316255737 -0.36354469628107444 
-0.44510196681524905 -0.3290318490394068 0.5852035071935178 -0.5925868177940784 
0.4208868793835478 0.7128709098758904 -0.545717552880048 -0.1298524281409904 
-0.10841221733507875 -0.43057714530769114 0.6539548768030523 -0.6125301071593754 
0.9719728921972761 0.12616411289567264 -0.07073673622421212 0.18533112960119932 
-0.39403693661168027 0.6343899876545833 0.6623881806123763 -0.05938126248511626 
0.010294591355870372 0.8109806200228344 -0.41026237551840916 -0.4170002860552812 
0.46462985039741395 0.5790132864205706 0.46888564669159477 -0.478548813178689 
-0.3577900438794859 0.20237554052205128 0.7241345579545195 0.5537685139795652 
-0.791887604654581 -0.31170045460646695 -0.27530463568728103 -0.44717357453414586 
-0.6769292820082332 -0.7208164981526171 0.0072552424905683146 0.14878738053752882 
0.4349509006449284 -0.8378864592771018 -0.23203971298228696 0.23435350858765744 
0.43686338012775905 0.27715384487270556 0.6047381058826979 0.6054981062472715 
-0.5595487740347042 -0.4392551086523593 -0.5004664455266506 0.49345056074644805 
-0.8966546314416303 0.10193867921499614 -0.43032792221335314 -0.020901123360113273 
0.09293847082420148 0.15880689910740292 0.90886854734989 -0.37430037813880335 
-0.680027914081633 0.6141025658641805 -0.2176233085571872 -0.33627395117885106 
-0.0946148040500209 0.6444319331254867 0.6293851986247144 -0.42382755240174397 
0.4818298714046267 0.5462681163564946 -0.6848970302315502 0.018632714631294605 
0.5493954332778986 0.61658563912615 0.20240226664953118 -0.5263270180903875 
0.6167759263766093 -0.37509428558024344 0.5217959936580195 0.45455546918914347 
-0.5881024870025718 -0.3780612985786587 -0.473524357496654 0.5357049581213423 
0.6410706530410865 0.010133416708362129 -0.7660143507284136 0.04634378225195298 
0.6487990031563746 0.04124898205444358 0.29197943029967555 0.7015029488638261 
-0.6668768077942122 0.20480203030067298 -0.3905057316770817 -0.6006968662630684 
0.14472665501727144 0.6869349309281675 0.4513594286411399 -0.5508622896650027 
0.03673232190512847 0.47374583444739415 -0.4853972961687801 -0.7338971901726002 
0.6891469080492911 0.07874561040324954 -0.47132055041382104 0.5447316832404138 
0.9556258763977192 0.10083848694813097 -0.08504853879486288 0.2633961464371898 
-0.09861623496486684 0.22404119087739227 0.7170196816809401 0.6526585317558926 
-0.5271913768305075 -0.6407793253857232 0.014515601837021573 0.5579071658054593 
0.007835116803374854 0.5903645118600973 0.2060493494458462 -0.7803537785349731 
-0.07336189533493456 -0.2924369498170803 -0.33471528114319393 -0.8927846007093655 
-0.517060542021288 0.5472415369959992 -0.6576705262349913 -0.02538848149650149 
-0.014261068540852974 0.02143730679220113 0.8009117945870904 0.5982285191236343 
-0.5194103621418368 0.13517023577043386 -0.6253330309447178 0.5664807882628888 
-0.5740723505622667 -0.47405538602684094 0.09722469841889268 0.6604996482332238 
-0.6251217068108497 0.13727248986979784 0.508731275960277 0.5758225456324759 
-0.18917245250964299 -0.7703663186600848 -0.02658261521275761 0.6083115014974204 
0.38249943646182966 -0.5667966926369686 -0.6852079265466308 0.250850129997661 
-0.4992948621275265 0.5588827364865203 -0.4528539965805639 -0.48298859747555484 
0.07680226213727055 0.424353814027045 -0.7328698097623016 -0.5262386293215904 
-0.0513782630762936 0.46778977991387144 0.7523337647970533 0.46100640151486744 
-0.19358650240712727 -0.7625828193694458 0.1904124911465685 0.5871412035479032 
-0.009413447377495582 -0.9379928034460017 0.09117634924520379 -0.33431685723322174 
-0.668330795004778 0.5790165128337497 0.12061661524047293 0.4511379594337606 
0.36409833600043884 0.8118936245704989 -0.25670579860468756 -0.37731058435487697 
0.49801632838645976 -0.6150768424053848 0.41374827813729464 -0.44996952889669656 
0.09202302689756185 0.8508393880578023 0.43016963396701646 0.2873294002755685 
-0.5650536156379723 0.711738944774311 -0.19599760840142536 -0.3684114865838557 
-0.34653541430283535 -0.8433936780292918 -0.29276047636242936 0.2879090376737573 
0.7049043065869237 0.24961169649938336 0.5682647309538855 -0.3433352808550504 
-0.23802233961150665 0.926387095136063 0.015337344114284134 -0.29140535631101827 
0.27834007935019417 -0.6850588743081647 0.012712769633599507 -0.6730969651151317 
-0.22088142275674413 -0.4520556547819737 -0.09367258104886872 0.8591172967763135 
0.7547470844066789 0.584461822095283 -0.29770376650904595 0.01156220130453021 
0.6887185285559946 -0.4201636258856486 -0.4085542596109655 0.426863834097041 
0.5473686078126122 -0.7334297271543992 -0.24646837976478225 -0.3189385211661164 
-0.6852382292532959 -0.33181276704793766 -0.3116151580279261 -0.5685462602823355 
0.255062933885352 -0.35208555109942463 0.7553083312528358 0.49039574753954346 
0.15333275106001848 -0.46866265861003403 0.3491399752726447 -0.7968347743061657 
-0.33134807802890653 -0.5103203133465736 0.4867671758389229 0.6267689729862221 
-0.7816546272806436 -0.5444179613845243 -0.005424331697870298 0.3042954215861753 
