-0.2046408126148202 0.616226080577069 -0.048721796185487755 0.4399133777323377 
0.1924901451525298 0.3206843013791049 -0.33833184656842913 0.38041507951885056 
-0.41814437277341315 -0.7423832302460935 0.4241627394551904 -0.31641393247655325 
-0.27207267556693215 1.1054530887190364 -0.28873750364107037 0.9149720690751826 
0.05252695826705838 -0.040361901582504654 -1.508815421171289 -0.638422789112258 
0.13392596819495367 0.9547836584700965 0.2845501300771022 0.08632321814796012 
-0.28821846690515385 -0.35288457042592625 -0.5552234297538516 -0.37302708470879853 
0.6189908215656503 -0.26636858444752054 -1.1044322362432406 -0.3554576458276804 
-0.3513387449362391 -0.506603136315465 0.16606247234844987 -0.6767529016173544 
0.1969760443570919 0.42452740499001185 -0.4223072907486489 0.35954728019298726 
-0.455672515405515 -0.3589487947122547 0.5796501339937702 -0.7602483830390945 
0.6901211516242498 -0.0829569811236763 0.26319276868361546 -0.45852803530120084 
0.43137892330252775 -0.3542883671253503 -0.40544514627799083 -0.5852732552816039 
-0.5825438366894861 0.9316119775896893 -0.18465492909848855 -1.3258179908955339 
-0.45259062694559726 -0.22343595532216368 -0.23456835034006537 -0.6637896140340586 
-0.09176928228484965 0.5626393826756652 -0.2551443070791402 0.6406889202274537 
1.5981415913804322 -0.20412416223968088 -0.21994569729969335 -0.06833600626721459 
-0.7021441624090069 -0.31116158719530884 0.61295801550885 0.12576807833688236 
0.20305320052228415 0.01306015566461058 0.8910747144922455 0.6305332356088285 
0.13907235528583425 0.33938693174075996 0.5236476848617528 0.5877446872214079 
0.11073418479441591 -0.2679698158838825 -0.5601668432919279 -0.450818267402357 
-0.703182410499429 0.15885812120002826 -0.4156925334863076 0.2798961031376632 
0.6761313322068098 0.21045747111148538 -0.5595899055662824 0.3012914272945192 
-0.24235382756781856 -0.4054543575889723 0.2957561078894767 -0.43745690993812375 
-1.5266940561123497 -0.0024261220664386447 -0.4918830962536455 -0.38103515338754673 
0.587126621483444 0.394212242156586 -0.06976452190793932 -0.4318073034161006 
0.03461025397875082 -0.24974436241081907 -0.6894686960214651 -0.4253908786206567 
-0.06538808569849851 -0.5176909071149174 -0.3554746349220178 0.3666647701909151 
-0.015324131077839382 0.433940448501909 -0.2835842228066315 0.4728334743864626 
0.6089858490475228 0.323422348188006 -0.3780069428432038 0.11657966801059276 
-0.9530288529123137 0.6969235039868834 0.1760788482872758 -0.3592050739282434 
0.48250699053068824 -0.012210715100212247 -0.47162669188255923 0.43597948718329604 
-0.548464458164707 0.5576837381192787 0.06852870802657368 -0.1400764366216754 
0.08549838600002593 0.21996065210501545 0.4701536656745668 -0.5325553665230938 
0.12634203137696312 0.38608129859313606 -0.35697495701612825 -0.4082946600202047 
0.4574949138489621 -0.4430890377349576 0.27312169802266145 0.12973811819282466 
1.0904894352892964 0.23245984348389098 0.3222981927840677 -0.11448481424629138 
0.07447219777271205 0.38855110368155216 0.6862818257300669 0.811591458008049 
0.2379719883287206 -0.3487102102884369 0.44271053651292197 -0.41814486999870953 
0.4587838551507626 0.5375954458991054 -0.18707495554335413 1.0177927546253371 
-0.3646806629760038 -0.008056320578450502 0.7596819069538226 -0.2428332611718134 
-0.08173385442022105 -0.13343802947879937 -0.532641353598612 -0.6635557507905635 
-0.44646830087445677 0.3375041186193742 0.9054720239171897 0.18501506022844358 
-0.4088449931553911 0.3262271681820395 0.5741013269455982 -0.11548177318367396 
0.3112371209277374 1.205490780140192 0.5636272340957647 1.0285231060297817 
-0.05678543383173415 0.4878615944377438 0.6195395817031499 -0.11059633889314756 
0.38604081681658764 -0.3233432207347726 -0.570229592700819 0.02564401582321915 
0.2616639556367115 -0.5361488419503653 -0.5079973684355255 -0.22643762988915633 
-0.5869004391716668 -0.024818707057531007 -0.7831248528660436 -0.35283299297448395 
0.3637007364591568 0.38591012766633903 -0.01530295087970104 0.32486362185879036 
-0.7954475135151768 -0.877719394538409 -0.1622041734130208 -0.5176384875135508 
-0.7065467207603535 -0.27693509216676626 -0.41592631019138104 -0.4170953212372245 
-0.25082132979042676 0.5426079667445469 -0.7900987931435097 -0.23297520944077696 
-0.07374377184144534 -0.3697307783301131 -0.3623376413310767 0.33518073701667944 
-0.1701151525129095 -0.06356351619734854 -0.628602229775076 0.722510905740554 
-0.4546916547424055 0.34020193385833125 0.6090337128481539 0.7167862704966639 
-0.07439129675638798 -0.5550609863025064 -0.3791692566620363 0.46385566606647427 
-0.6917463648150244 -0.21213153749734595 -0.5530827575298113 0.3377261566130937 
-0.48994733179806704 -0.15829337033646232 -0.3525675345605485 0.3345710321190571 
-0.7332438832051027 0.0853860628009789 0.42500396246135325 0.10632431114937589 
-0.32868782488693565 0.23645082899285563 0.5070431691470145 1.5564148815464234 
0.4214159634055459 -0.4269092097663012 -0.2947450404341459 -0.17784743227797883 
-0.17615547509036014 -0.29980976641764434 -0.6510264331370013 -0.4717972800587161 
-0.7089169614269493 0.2395930723850095 0.5610912509149244 -0.713072215228676 
-0.49826707583315527 -0.45208112490502 0.21857491318201577 0.38845375093659235 
0.4607762359508944 0.7420873337263639 -0.02135403331523421 0.9054377202358012 
-0.4308647270063219 -0.18707613130275721 0.39494405881719313 0.24275497621589556 
1.0168618861681322 0.4490607266956008 1.0291059542094925 0.7347720314118794 
-0.4429638440896605 0.2558806697099889 -0.10805292142085542 -0.5336514272665827 
0.1784536419067881 -0.3905396425863644 -0.5402398291598853 0.44084703879513276 
0.47757673310699744 -0.35045801431249796 0.4258708936131514 0.3599890862230335 
-0.4366782718220809 -0.39237009370796 -0.3676494478539848 0.005737876506499428 
-0.19684255579148827 0.26753394077203574 0.004429608253658565 1.263662997118615 
-0.5264283842563874 0.48015986384413223 -0.1451723445559339 -0.07147394728964272 
1.6272170348761577 0.1686822851907355 0.42554987894480006 -0.18583274029207983 
-0.1098694383045327 0.8520831446457964 0.3809667136241626 -0.278924844846835 
0.44248403399903574 0.1767087129659661 -0.5942218862460361 -0.20705064762554967 
0.14738797794457903 -0.19303294794584944 -0.24083507283808375 -1.6125354634655404 
1.0651290439742498 -0.10232345878676215 0.3859457599030942 0.3605652275404386 
0.0544528946201919 0.5600033890036041 0.4444962996309104 -0.5552358660369009 
-0.5827867036046716 -0.4985087126199814 0.3397529998000826 0.36161215000923785 
0.06116153129135899 0.8595821167207655 -0.24375943059750946 -0.35493495361915867 
-0.6200625252940771 0.40778294981748997 -0.3325018002006242 -0.8838420817837488 
-0.29429321409474707 -0.6913458958981584 -0.242705157816248 -0.3731027168132433 
0.2369569969657061 2.177763975943382 -0.48745748725417254 0.34258227080318177 
-0.49691988002355075 -0.08382016875872379 -0.7526196740378096 -0.23508678911879816 
-0.12110303361781792 0.7126769324151142 -0.011050887927707564 -0.5497024273920642 
0.5704872546232055 -0.2886484435572726 -0.4605601894207187 0.41218750928743586 
-0.5278442016761846 -0.4364798869896414 -0.04926127297006626 -0.2532943457659106 
-0.3120822981654582 0.2594808983439944 -0.27799433208421037 -0.6228352843904986 
0.7112135485706405 -0.3615393763243687 0.5967019230210858 0.5407360401050748 
-0.7768464695005269 0.2762825583229347 -0.23410811676287235 0.31707369957445325 
-0.8020519107471643 0.45571444957548635 0.2710495503696719 0.05970979544069481 
-0.024573171729570912 -0.609361332056287 -0.16285469991612045 -0.7705458711914057 
-0.04658655026424856 -0.5296561919444397 -0.8506847793397166 -0.4533449850837444 
0.2781189344997307 -0.7085527860105508 0.4226929759767576 0.1670920613856003 
0.1313832423973395 0.07396492252090199 -0.4396839144074099 0.8523312057464729 
-0.5564501541470521 0.415014685651789 0.5144641489585391 0.03851060674133328 
0.2730221330437426 -0.20315507890191617 -0.5245985896783306 0.4829308424554127 
0.34010579083327624 0.01364562617955648 -0.3752908887925626 -0.43472731224148414 
0.6162545347600072 0.320928601095748 0.5403609499101016 -0.631125664898852 
-0.3055824188834891 -0.3054362643696026 0.43454275720741287 -0.4694156869236119 
-0.2875513086969006 0.44946496095665456 -0.4489579998498729 0.2714202545401691 
-1.0618324150176397 0.8579438539567507 0.08303452161192484 -0.11008182542496271 
-0.35274147538520056 -0.3036417928125961 -0.5440153003483379 0.4837666358556143 
-0.37614967042232217 -0.3645237626472255 -0.259426492176373 -0.23443321070099765 
-0.1548249338982594 0.4607321062925403 0.21231590106339218 0.8522998823919764 
-0.2762393283655853 0.2216642518316054 -1.223149560428818 -0.11579076962457409 
0.8734477046314314 -0.3596792661124232 0.27362092749722483 0.5838405554440615 
-0.7200528498091477 0.6833173543631587 -0.4715933785296229 0.3793563339547963 
-0.6173650276071073 0.4087544854154097 0.6292650901617817 -0.20403653081527404 
0.6859325003800529 -0.2972906910468214 0.2663032763536566 -0.9414203888913446 
-0.9177664560559241 -0.2323165790938241 0.40726750121709426 0.47768038873242746 
0.3189736385802531 -1.165813707998072 1.266430593536146 -0.03212648854130623 
0.40756936975874125 -0.22437530662457233 -0.7523306935451138 -0.8349464519002977 
0.39946966307101256 0.2071204788997358 0.8969046380063334 0.9855600991868138 
-0.7317883787622133 -0.17964749750189019 -1.190476010130558 -0.47123524724286325 
0.4098787380055058 -1.0396351088146893 -0.14802127550457403 -0.4083485285003769 
-0.4571424186780428 -0.2519848562295411 -0.062475744016946104 -0.647346305997271 
0.43121049778511444 -0.42451173377046175 0.240149393207963 0.276599685814938 
-0.260870242826396 -0.6193613984854944 0.7636160050037292 -0.9923703425484642 
-0.6134385963479353 0.7726049966695422 0.05225127557677667 -0.04360152414789543 
-0.4011800075923654 -0.1806949582078223 0.3422443243429618 0.3360904036196347 
-0.2618888393404221 0.418656502294861 -0.5903929451579422 0.4686667482737856 
0.29827696393638353 0.42194161558607146 -0.4866292699613646 -0.17162421925799035 
0.6092236997768432 0.05763304704641629 -0.5058841646734441 -0.17528215513772324 
0.5873916246627158 -0.38012808797336906 -0.19944168753575625 0.5845818111772846 
-0.26713474511926955 -0.34829231292859386 0.41712306402162075 -0.2593475412939686 
0.3789806675545382 0.48895349306510016 0.347313255722496 0.0989184084133332 
0.5850907029158187 -0.18320286833253638 -0.3498678642313287 0.6096218477938395 
0.31417732015805677 -0.49214423085679565 -0.1829523664169316 -0.5036554506071498 
-0.5711624306834234 -0.4783955748798632 0.4666495674897451 -0.18503298044540945 
-0.3655629103917641 0.3118850110942818 -0.21850000592322133 -0.42677689110256084 
1.405950543465334 -0.2562701449752834 -1.2934168446997303 -0.30600244860449877 
0.5652689047358072 0.15744665939890784 -0.6306699284737952 0.19353703796360477 
0.4794240191159233 0.3557555909705288 -0.1147441535318314 0.37635210482268044 
0.12443518328526923 0.629622319912539 0.18320185456941382 -0.4541137472522386 
0.41709432164428273 0.36731777870659343 -0.3071998969704668 -0.1934585171095057 
0.1538195294446673 0.2861603313264122 -0.5250599996122294 0.38644922145630284 
-0.025532692477345364 -0.14087307243550412 -0.749296627236633 0.8857628691494591 
-0.41800570416778327 -0.14900006334496269 0.367583186750254 0.293791399029792 
-0.9967492353802987 -0.4662005810473829 -0.45610118360947893 0.5133589139034066 
-0.09062540564030043 -0.3677451705375697 0.5191930826944554 -0.3514921312506631 
1.0716708000363013 0.11972448247700325 -0.8326991476826342 1.0219469598445616 
0.23342152183622353 0.4658579711014046 0.14678757932207584 0.44769644386296814 
0.05759585377637016 -0.8981616941160757 0.3445194688548851 -0.6531907808808316 
0.3560570432496939 0.5798766582576046 -0.09684678374312197 0.5089417608079148 
-0.43488689366741096 0.301041785095935 -0.5047378694137675 -0.14873148841489536 
-0.3430276185175312 -0.2283324823806821 -0.2758727414651192 -0.3163238207439754 
-1.2134635812243009 0.5387332282850974 -0.2546770974510753 0.7058194779178784 
0.07748824372616143 -0.5155463732342868 -0.9038437281349263 -0.07106469904198585 
0.09503898433729212 -0.15722159916544326 -0.9963219231578845 0.143800661138637 
0.25371695573196656 -0.29441621321447387 -0.3150816730359591 -0.5742762122406657 
0.808635752916698 -0.21226069652372995 0.3558805759521727 0.22803766504005177 
0.36855719789960023 -0.29570214244657944 -0.329903165705237 0.2128140162701937 
-1.0448285420374939 -0.1581083638740505 -0.04792937397429115 0.17991054806955453 
0.4635359868327881 -0.4521816014436782 -0.24018729618331275 -0.3911409726405826 
0.40545369165115114 -0.3694844342243389 -0.13374573452996483 -0.3083865887354779 
-0.37941741262294554 -0.29772903255520805 -0.3934334434440564 0.6982229845837281 
0.38035100225794144 -0.4064013315711251 -0.49154645243278017 0.784959849272352 
-0.5623180885258484 0.29811469961954784 0.03232637508322556 0.7524421701772226 
0.14076506010795237 0.3459103045056909 -0.37592088928232503 0.5281032428609707 
0.4823151653284597 0.18608267013872068 -0.04203288529660885 0.559592298727488 
-0.38767639130946463 0.6347343555845706 1.2213205675440386 0.11274468780540947 
0.2422430686514445 0.1104948733911675 -0.6782668920948234 -1.3701863155107974 
0.3015177445965036 0.3755617403533721 -0.2599957641991067 0.4758824686940941 
0.7612321983735216 -0.6129267492895351 -1.0443262778336608 0.6117790107596072 
0.04567377439566807 0.42792834796288093 -0.40014038754065406 -0.7627247896376246 
-0.20320122596343046 0.6835387746755105 0.5510443021011999 -0.40828501709665554 
0.6645573737609168 -0.8065095108661506 -0.9210454470351747 -0.7872969386312 
0.4568765540167322 -0.31700529089282975 0.7851237518277581 -0.10440517019473562 
0.4638679591135408 0.008164968726153531 0.4503563554794994 -0.3737819426688112 
0.04534554810009546 -0.8097584421280164 0.9002449931806898 -0.551874431161285 
-0.22602476192223053 0.6641828671285974 0.007697892428369833 -0.7735989386123924 
0.18141999932984118 0.7483707564756172 -0.0722069945220128 -0.4809991623534656 
-0.5890644836323963 -0.728380211566553 0.7505296782900123 0.03978010886461348 
-0.10640972790337394 0.4716966967080684 -0.42470266911160864 -0.5357622307346169 
0.42459378137331355 -0.39347217350434455 -0.6874298560710175 -0.4190239607230515 
1.0946743368686387 -0.4395781823130737 0.11218803351931736 -0.8490625278678423 
-0.7617571506485156 0.3649919704502301 -0.9125091755133992 0.49353087654189065 
-0.46918786472559326 0.10602878916691579 0.45451239288964385 -0.5121361116661501 
-0.10287562211408116 0.8868524335104758 -0.2787790485609123 0.37778347421549613 
-0.3233374647839394 -0.8784902427372869 -0.8803438731934438 -0.578074802170507 
-1.1539273528817269 -0.1431015372749698 0.5375035107747462 -0.17939661351728453 
0.017961622271715903 -0.5965862136901487 -0.2807936835659927 0.41001653817766576 
-0.5889161381915162 0.4211363935778001 -0.15741754775962888 0.4461896786893139 
-0.4210179842160819 0.3395486407344602 -0.5010737405418272 -0.08406105598712223 
-0.31148978605658917 -0.1777116621706851 -0.45577105758880493 0.4040865998263453 
-0.13657641938637635 0.5359941360553953 0.7904890620163348 -0.5319546254854749 
0.3189621084170481 -0.6169534604743885 0.46565362452069387 0.25092425375435695 
-0.45397341899895827 0.4519464036486469 0.04432879295479511 0.2834443226460583 
0.2568443216521763 0.3981596166091211 -0.3463993573941533 0.49120455296214716 
-0.6820949808130464 -0.3943198301843002 -0.2121941581768215 -0.3942586462122799 
0.5533739957547852 0.4487126115948583 -0.2255567124513068 0.1320437592636332 
-0.18534239435087665 -0.6996943304970974 1.0995259643865405 -0.40026204256490333 
0.17349966268521436 0.38237163393974594 0.29974203541179284 0.3864266735481801 
-0.25938344513103745 0.5937725924033922 -0.39252606144524593 0.20647510044401277 
0.26162590285362064 -0.44086296225591515 -0.08299837591690873 0.4302717242835356 
-0.1735095828563882 -0.6112284613718575 -0.5093343061555659 -0.0346245788040152 
-0.1313279493039046 -0.34768404865745334 0.32551263625301635 -0.4132946737812779 
-0.520445085055299 0.24883776774233296 0.5747546551696568 -0.1577851797906208 
0.4061159108993646 0.20285791955061314 0.3552620755309046 0.42291301017907623 
-0.2664933895987174 -0.3220804705834773 -0.5980681661295548 0.29524689297674894 
-0.8337789054848024 0.22457954988311948 0.2266992695429704 -0.3382950658306761 
0.25346239561309425 -0.8748920173759627 0.40167685910412604 -0.10139856540258337 
1.0407210453589162 0.22453068335013238 -0.3299046047671591 0.6416442485024507 
-0.14865738843828563 0.3833227912979177 -0.3420294635860656 -0.3896835550511415 
0.22904622144477446 0.33728316371502903 0.34524831984384863 -0.395993911702716 
0.5003841978022583 -0.8110603647713762 0.037830462952264936 -0.32382800398550704 
-0.3238595920090134 0.7325666555144321 -0.39162776346303385 -0.5446775740437991 
0.435298186611929 -0.5420220437762713 -0.1717736205301092 0.4887495719180956 
-0.5589533538867434 -0.29328621255122234 -0.3412186378467854 -0.47095258831195896 
-0.34985475516485925 0.35835438289567517 -0.5184549562002019 -0.23255688816825051 
-0.31004455881211096 0.3704315067222277 -0.6731540531417903 0.6340712359963835 
0.2201830401853281 0.26477162203617693 -0.3448062953813941 -0.8701405408060999 
-0.34406388414522104 0.6658274742091275 -0.4330080143574 -0.08203775926070216 
-0.016795959458440427 -0.41330951227435825 0.034495586929581906 0.8969795854027424 
-0.431387296231624 -1.567879370689868 0.35679407504989746 -0.7475348528541692 
0.29534620745456397 0.7452662149083272 -0.5378382989542451 0.19788762809000762 
-0.09938968875348828 0.563148484878458 -0.20178313792140024 -0.5340534637530066 
0.2951057431610929 0.2831262999483789 0.2747763828762255 -0.3279211808313384 
0.37573902981336676 0.20940817918855079 0.27772020197436786 -0.3907836868893015 
0.8546687530443475 0.08980847424362118 -0.6518316320278106 0.13214511377306962 
0.9623527784286604 0.1677920375346543 -0.41549966686437184 0.046517508010695395 
0.13850563042824524 -0.04490534544741099 -0.6807110427136088 -1.373486495367409 
-0.47811280284413415 -0.14482489559916362 -0.50559412929306 0.3506529235328802 
0.33634337162024613 -0.48062643107280717 -0.3787801634497872 0.25148733324390465 
0.06338686129775262 0.5434665010730674 -0.6216867677556882 0.07985704758461311 
-0.009026474714699705 -0.6340800029389208 0.7123078724151155 0.2135342715525386 
1.5890672367193106 1.4263115881675013 0.7133994144135867 -0.47112146323060977 
0.40041727569560137 -0.3043299713486349 0.5214926200048436 -0.5362076719934098 
0.21627215617821813 -0.48520200022358195 0.44280062262984393 -0.20598148855033602 
0.15379044967162403 -0.23337304390877697 0.4114224050302405 -0.8552547885532062 
-0.11995403099011778 -0.26364226564403054 0.8188729405402174 -0.804616818467891 
0.11319125159058711 -0.26545365911918073 0.5487639037512723 -0.7438635317935395 
-0.35346167086474195 -0.5642243627776671 -0.23788528366352268 0.28851193865472274 
0.005067149512229103 0.5341533190582518 0.3242088292633323 0.6196193163144244 
1.0256494948163424 0.7526903643829086 -1.5229593739186567 0.1710100044455089 
0.2383048551925366 0.19637406357215464 0.44388158541655237 0.42458671798379316 
0.4083419439690101 -0.2304601021927325 0.17900890808030026 -0.42316930529929614 
0.9282324610818999 0.33631914987651207 0.2833966345902298 -0.6488708522383095 
-0.7254709251998607 0.386150776061032 -0.3878731436117451 -0.10237180477708409 
0.40086200941822714 -0.28959379990274964 0.6726769354820267 -0.5181258005213402 
0.17517850077628663 -0.2817378892464412 0.3968690677217756 -0.7373059154301189 
-0.39334605404174916 0.7875744341325719 0.12517350034852232 0.02216209934976503 
-0.40062957493351087 -0.29889483852647303 -0.11266797424558846 -0.4544333351079676 
-0.3809030698903222 0.2024764281331873 -0.2981669417768595 0.7481483497003323 
0.3723477104736603 -0.2903974497553979 -0.40604308379397286 0.3102421673182387 
0.39955152874512007 0.5049013570328108 -0.11197019080937938 -0.5454601393390579 
0.5084441931674827 -0.7274337737190012 -0.8540779463319002 -0.7445941016740808 
-0.4377907430254557 0.2422520953842837 -0.3341234055047823 -0.28071380316786027 
-0.13445563957136047 0.7544055376229502 -0.5703712402827732 0.0007840781006874858 
-0.40537952445180403 0.22362985478646902 0.26339219912614 -0.48610941000667063 
0.44706035794853927 1.186040644183596 -0.6737053577082308 0.08922580069266464 
-0.6799069648750975 -0.7711181109668548 -0.10723953205805052 0.06236980298045881 
0.8659361281948457 0.14781960106354586 0.5770861750659806 -0.43496995119875537 
1.1742574698542432 0.07638339213424783 1.510312662387343 1.6051148452049326 
0.22899563216879043 -0.5278021955268105 -0.054079996514874835 -0.4470738435402219 
-0.34746801208195405 0.13097666678315512 0.5334111126691793 0.6053992052871222 
-0.4206906881735963 0.07533387017278043 0.3413399833821789 0.4360776413425279 
-0.4204136423764659 0.9445215708030354 0.22344957657369896 0.016771459968997295 
-0.3598219937571712 0.9843156339725913 -0.24261798579841184 -0.1858432262260168 
-0.15252441893918628 -0.6216762773014605 -0.44344325895519116 -0.39378993399668605 
-0.36227429536711786 0.31920420600844973 0.19083982036700486 0.3220787123478074 
-0.2117912090547033 0.6098300600894512 0.5229600073493585 -0.12851805733555943 
-1.2836855311811943 0.09579063860521818 -0.34504969323858653 -0.4714238274316477 
-0.6123053874796218 0.09377573002235363 0.18921398693607164 -0.7337009266314013 
0.421619319378231 -0.9056959642702839 0.5534430092746369 -0.3598883500404448 
0.8467097081365554 1.16500550567696 0.1394868261750726 1.2516328005144082 
0.4803560320844747 0.256816431209381 0.650228635779498 -0.13701399170059858 
0.3874317875466219 -0.3304246304635168 -0.33268079299158393 0.29966723560492886 
-0.5164847227998136 -0.1955893414484779 0.09528268027311051 0.9275565224970116 
0.44069688677038826 0.6050815598703028 -0.12659717841970355 0.5150505208361339 
0.7516123556510115 0.6378908494491904 -0.7704605641355703 1.2298161382555792 
0.12983777221524473 -0.24609808797080399 0.5355789276793278 -0.5418154901420049 
0.38110027963232 0.5601976900180808 -0.1432973023068015 -0.31846347868555513 
0.23997267482262513 -0.3550212934936669 -0.3685568218877619 -0.24329877962850696 
0.25141135782715274 0.17552413503457606 -0.7643055928132614 -0.46995577625675106 
-0.33764451402916806 0.5561065371695458 -0.15098039446784775 0.43591018222292066 
-0.8450598010868078 0.3296385580500926 0.21333626198463176 0.08343100750131677 
1.1321847652133048 0.28496352406163933 -0.5834145082553363 0.3610138579190164 
-0.6264941361007877 0.45583697964238257 -0.45459007215219605 0.05368337629040653 
-0.14306805375481293 -0.03613160282832612 -0.6044374887155103 -0.483285666257492 
-0.464747566955333 -0.26138906532495026 0.14697988430407788 0.4116338400865479 
0.8539923743167427 0.7901931169428696 0.3331435290904063 0.5951947108053621 
-0.49130998602356335 -0.18200780930547933 0.485600084336009 0.15016295064519855 
-0.8206239744318632 -0.37816739849407593 -0.13212981746511157 0.18524389604954994 
0.532660199108935 0.3110015697642463 0.4656139688227749 -0.21529953534053475 
-0.09419454768202638 0.036457540518575055 0.5106382660054634 -0.5223550263531674 
0.4230014393376632 0.6163099811770817 0.6561258665723193 -0.12527836017059157 
-0.02979192083825433 -0.4191037371557558 -0.4998270415885748 -1.039540827567881 
0.4021913870571968 0.49173934572145206 -0.5190718199286454 0.13419586685889795 
0.4653933238369681 -0.05154641963533855 -0.310197616001126 0.5233289344219011 
0.13788253890033433 1.110684930027727 0.14429449860532073 0.028719736923000366 
-0.6867556193806542 -0.27602264247458386 0.5174776469565914 0.16844462539561642 
-0.6265825920194525 0.2939925065592711 -0.4596105463344289 0.04685718367514923 
0.5306547290292543 -0.015417079648432646 -0.18315937946524208 -0.48583323192656 
0.48636861165659584 0.27105671450783475 -0.3557730010974199 -0.24478115825917957 
0.4086936521328648 0.23389236536086244 -0.7190018479830584 -0.13140777776271972 
-0.4851089318506705 0.18921342208598144 -0.452857353234894 0.1109494707353207 
-0.4504078097302527 -0.4019383913658069 0.7042440647139317 0.16872261317859122 
-0.5560426777707769 0.40215682292302884 -0.06431365687674286 -0.45918808896522584 
-0.5005437115076381 0.3798387892405325 0.7086941639522184 -0.166842807079896 
0.7362786223002241 -0.9124083623147187 -0.29863205856313063 0.1422091495567573 
0.7419165133798872 0.5854341108952419 0.13873116951115855 -0.13870753052328402 
-0.3130162742833736 -0.37415802682984506 0.4601386208414846 0.11719779263845123 
-0.08806946691250739 0.4395721631780997 -0.38202108675240887 0.5989485404285602 
0.08405434041492717 0.76470494718416 -0.5316769988337071 0.06157430006691048 
0.2506916595449016 0.5723736373541195 -0.4303016621491651 -0.3004466597063827 
0.4797170737284014 -0.25125500747931856 -0.4604740701334567 0.41269393132289045 
-0.8620748056323476 0.9661180581523918 0.1678442451086052 1.1347922479819221 
-0.5440361883086703 -0.6612687364054879 0.40156380399858066 0.09231165189758828 
0.3142531267935336 0.2763145768034797 0.4743615213939222 0.38445285538916946 
0.37876214244297046 -0.3406129400102849 -0.4879959645071293 -0.4052312583328167 
0.07965527915767301 0.17709566646760802 -0.0036260727355605198 -1.1501588745786606 
-0.4502219479543607 -0.4472055152734765 -0.06404382931333502 -0.21605866892585876 
0.23362275185773967 0.6791566803564745 0.3263648392376832 0.29276527255265644 
0.3972512407733223 -0.4758062437489748 -0.9562253738605382 -0.5885827682322249 
-1.4599934508777068 0.6425626750283188 -0.26314062381717723 -0.4196849253161773 
-0.5466814292534914 -0.33274055581390344 -0.3973714509953943 -0.3454860048396511 
-0.14247471107285117 -0.008329160978522902 0.5753169302118384 0.7296986597494287 
-0.3362542243519847 0.4183958517979993 -0.025818423869733563 -0.5165954886324283 
0.13817785676375213 -0.3862758202645331 -0.2810086338611838 -0.3951574852335928 
-0.31688604645050755 0.4017246531054178 -0.21776219829968066 0.7185390474736988 
-0.7246410528500221 -0.3626101660975564 0.19858649388558341 -0.3129508291983301 
0.4381813077205274 0.09283679115632441 0.2787013770426863 0.6808831255155616 
-0.39261845446318794 -0.5733869379221914 -0.14251134313323408 -0.6875964166876772 
0.36678567562528885 0.53520965196445 -0.40741718415009215 0.8896806426666265 
0.4383100044955271 0.5234945788539285 0.22065326166205174 0.2929310336057716 
0.43322749060229687 0.28639713809522405 0.5178629762176349 -0.3184303607172996 
-0.402403638838888 0.6576583646208988 0.015463660765010465 -0.46360920998397936 
-0.28145299285126685 0.5285902356720761 -0.18225450295084095 -0.47646543778724487 
0.3565430542315959 -0.4098490552364352 -0.37403821302285084 0.23130395169945772 
0.6325206928463697 -0.19851643365427463 0.25592801740980436 -0.4979777123169152 
-0.29849238182036614 -0.45511440307085294 0.03191449170587476 -1.3062190721339193 
-0.08775761265980692 -0.7764515220674371 0.28708256647984676 -0.7923418378357716 
0.775546296651531 0.4849066941422769 -0.10814968676782616 0.10640728505837602 
0.3233722831189 -0.09335538380836765 0.7445831126783333 -0.38025745411997974 
-0.17091492677401598 0.6818732125503246 -0.34599148515385875 0.6359953025175189 
0.5202658352586279 -0.2648317026144953 -0.533543697742014 -0.5152097399184559 
0.6433586029850439 0.07546450233128457 -0.4552707317736627 -0.8176001465167149 
0.5812931531531552 0.4008083254146317 -0.5539062693106772 0.27274811174886476 
0.7959890722210263 -0.29166404606394003 -0.3504821408809953 0.031106811921362144 
0.6571964114958635 0.24142766598692966 0.8238722646457644 -0.1392545860850897 
0.2653127747671654 -0.5261344180732942 0.4733488665651663 -0.5533542957926167 
-0.5926595926144471 -0.24691144920958835 -0.5446556135257025 -0.13497036182843525 
0.4548131302781756 0.06662037904732032 0.5016245463127479 0.9798910526433534 
0.08866352201382169 0.31457337597355794 -0.5952648345375313 0.5604040819310877 
0.3086074796644066 0.4026278852906982 0.5901545304927851 0.022751553809537462 
0.41923517184675446 -0.27496958752542666 0.005826484928950648 0.4171213730816779 
-0.667567730840094 -0.8937583278393212 -0.12312454227497563 0.413775771420181 
0.6751587752141889 0.3061699735960139 0.1840483986852533 -0.3632739900470209 
0.2824975421792191 0.5432149449000442 0.4415802535735985 -0.37189095736598277 
0.2391265884700868 -0.320796330820393 -0.8437684480687948 -0.36566017810632084 
-0.5475406785342746 0.28336624335070704 0.340257850527318 0.47281378265740226 
-0.26381608488142255 0.3025621537287476 -0.29901011955496976 0.3475713741150596 
0.07791162157472128 0.46394688149137125 0.4821855008699374 -0.19565301947727923 
-0.6613483195235978 0.4192171383628428 0.14052145653889955 -0.3852857932144708 
0.39054963527474446 0.25352636321878796 -0.5736794479010661 0.18322335878457266 
-0.2028536343295689 0.5132114714949622 0.4559598973796681 0.2687248517507673 
0.4380993335119389 -0.1955342136477991 0.3611854268921638 -0.764374170422564 
0.500469161374327 -0.8304727879861231 0.14998611708627682 -0.008384251517721226 
0.5004059078808833 -0.06059848847255196 0.5240877894632956 -0.34480165438286553 
0.38574439921238446 -0.45742624344544874 -0.19639016538794687 -0.3208987701197881 
0.6470307624442018 -0.3916801783643398 0.6256134288147859 -0.045809605433649085 
-0.42614910392271793 -0.31721395511403794 -0.531160126357754 -0.19365696369563967 
0.4175288681012687 -0.20334462452536195 -0.29231804351655283 0.6284124825513432 
0.38206556997419877 0.35896965023528316 0.249494396497378 -0.4176110267030617 
-0.40781950027526515 0.2387597162688816 -0.3323647615743759 0.5776503318216911 
0.8285873601514908 0.06809565319301902 0.4357442150162631 -0.35669928375314713 
-0.20707163193242623 0.5700613170104138 0.46242848948190807 0.045299518379639185 
-0.09345916523248565 -0.5362367300922324 0.49369978783944496 0.1853330262556712 
-0.4288482549657229 -0.05529289377620105 0.3873257619062445 -0.36055166801890465 
-0.3549435243950246 -0.33629630398419375 -0.2027989230981816 -0.3092072425180417 
0.8459345310367159 0.2124326836146091 -0.041667008413087875 -0.3337180653856932 
0.005515913560334071 0.2411449960751083 0.621818196810869 -0.5306214850960635 
-0.36479741284205175 0.2620650138541161 -0.34990784389051305 0.25276316696370915 
0.2740148320358299 0.1516110769248204 0.6458918199989706 -0.671127599378548 
-0.557417251004154 0.6534767214460557 0.24710191331910591 0.10516832381622504 
0.17463342198518758 -0.5973087074151218 0.5030272106690757 0.05564966841107825 
-0.6386273366459084 -0.5674611961897047 -0.1945071917459736 -0.007153886329540813 
0.43237927915513175 -0.35707811006454143 0.344859465667506 0.3515411235499125 
0.48607805954922956 -0.0567510439592298 -0.11131132723782422 -0.8753376435470864 
-0.22615245375244278 -0.3935276350310882 -0.38297295358247446 0.3144541495110183 
-0.4853221145976658 0.17624601999757739 0.2556452947215335 0.470536002419209 
0.16351506027009094 -0.35617767270598283 0.37000604325114417 -0.35196522308512335 
0.5382941464949783 0.04898193495537165 -0.6753227240336714 -0.00047810631875798984 
-0.680395575687687 -1.0349245813433576 0.22573041290454884 0.39778578533969805 
0.17284267782314738 0.7230783023889313 0.15498883237460812 0.45382740245025777 
-0.39020106172068403 0.452616069690668 -0.5837132508125342 0.3008811071197709 
-0.32068397228254514 -0.2428575205879186 0.9815489576032438 1.6375555605293435 
-0.27585346067091354 -0.4139277721134574 -0.3316977590382631 0.2504764816877161 
-0.6047818388536477 0.5913070385987865 0.17845684658194896 -0.9332866017431912 
-0.2734857029215524 -0.5599963943503786 0.40792889590888737 -0.47472860610105105 
0.9134424274346634 -0.473070429461208 0.387083088603284 -1.0974562334560498 
-0.053743858861957115 -0.39068595217325036 0.7809296044124622 -0.3187828333069755 
0.4637722251098756 0.3246095793069748 -0.3866947813566547 0.059884237790831116 
0.0884547066347344 -0.5151635941676677 -0.5105781680868108 -0.03436025354601941 
-0.38715459219955173 0.4764942578660506 0.3717089495849569 -0.04984760324045092 
-0.5377084723609612 -0.533155215374575 0.3337163328162802 0.15335351336255904 
-0.25097833508913053 -0.69413032732052 -0.1858389421887529 0.6576675107471974 
-0.4570009420656064 1.0851112673348968 0.0861843725492218 -0.20093425125649858 
0.04936208775945678 -0.5642699934739945 -0.0925932011896801 0.5877041052114581 
-0.2736779250841425 0.2045378793693486 0.44388081227142934 -0.807741070149753 
-0.7572338243285233 -0.5073774591838124 0.06400680477204088 0.294964052080503 
-0.2286656267068683 -0.6373003985869864 -0.45098154132339463 -0.35919654270927565 
0.5665094719202961 -0.4847144692767478 -0.24142953327073924 -0.48410217296708596 
-0.5125369655988979 -0.18582060718507212 0.12216335392949418 0.4559911153028453 
-0.5958417913759623 -0.1196688953985271 -0.2170340049381151 0.4847152112490519 
-0.3381936706578048 0.46538895157633664 -0.7064893487193795 0.20968577795638416 
-0.3139975677007306 -0.8281684904115052 0.04571012083387172 1.080376141940625 
-0.35476613863017514 -0.39511312532787396 0.44174697902038024 -0.06899290829297333 
-0.5686810202770494 0.12294263223266795 -0.4893670009982563 0.08084835011884303 
-0.5789053219951873 -0.8562127299034182 0.15341483247923066 0.7204755340453624 
0.46565058684490085 -0.5288530609290294 0.12229458958451614 0.2180741272069547 
-0.547418111331525 -0.3009305887662418 0.3818163423603917 -0.41670001864062733 
0.5886934597548524 -0.09232745219928798 -0.6400817006636791 -0.030676174419500876 
0.16670228040803034 -0.5366057869812215 0.31949341855124797 0.46912453687415673 
0.23796601843329504 -0.20847685750804848 0.409385309277841 0.5127611770283523 
0.26141757549459765 -0.6193276205091044 -0.7365312829541167 0.17713332318928346 
0.44389159071208695 -0.29437657212248947 0.40790633209414123 0.09052952520791133 
-0.5958181788535768 -0.08106261149574662 -0.5801805208041378 -0.298253253779237 
-0.03980098142059041 -0.5160457547072052 0.49094166716376464 0.1389292467748483 
0.32256907940235174 0.010846033098203199 0.4449741090880152 -0.38528645278033 
-0.0772706339692825 -0.17534427660751767 -0.4845288362908672 0.6918981099504176 
0.39791081079499224 -0.1982373612562897 0.5157538558459314 0.5589900761408413 
-0.3940636067421521 -0.2959167950346622 -0.4721865194914663 0.3267266259934407 
0.4249275285619526 1.0377896207398403 0.3435014244471321 0.02011012900984569 
-0.12069338523322153 -0.6605637023720164 1.1594362127902205 0.851121504872236 
-0.3193936196316767 0.7311444465473553 0.017787004089087375 0.589661230002601 
-0.4487914190030926 0.38728974340390027 -0.5887182510345372 0.004563181494182927 
0.16191907005795803 0.6420204635420599 -0.2383995068642826 0.7637576949792119 
-0.6026752780925689 0.7873677147098032 0.5556237681736753 0.14789313233791332 
-0.7351493470140065 0.26623496220426957 -0.3944510344627823 -0.27036364544586294 
0.1266941723901408 0.5477052162013851 0.576156118983688 0.2954285239856626 
0.5727437929241697 -0.9584418604247267 0.1621468357318776 0.13249419431152246 
0.34498986534165943 0.2935198377390308 -0.18725053280635373 0.35615526291148153 
-0.26159959823842066 0.6736691311791683 -0.1666646252811751 0.8888790913906782 
-0.7683179436548285 -0.8905815777896704 -0.866323169779563 -0.21005288321262852 
0.4953614069432487 -0.42324158478096113 0.2994855541695474 -0.2287041282198715 
-0.5148124365358784 -0.5792375772869109 -0.5955991653742382 1.0306444769380938 
0.4618522172935692 -0.1675287581525277 -0.5896575288680631 -0.670665395803625 
-0.36739859401771013 0.33781633742037037 -0.209456294677345 -0.28961581125831665 
1.0455632922074671 -0.9484993350256032 0.25720573180024386 0.7387510127186715 
-0.21453864780717508 -0.3690730466845751 0.0384762463651624 1.2550716293414312 
-0.49356879374588136 0.30835130827644164 0.4757181168274369 -0.02483712021523325 
-0.40213649725294265 -1.1010143301250337 -1.0477660275063017 -0.26393169305627395 
-0.29767177459424365 0.8244646393917253 -0.20321967704622337 0.33609471690048603 
0.26607279607719164 -0.4144723823487676 0.9367060434386197 -0.16986287531783048 
-0.32059460727161104 0.6187791134303762 0.34229264481280836 -0.18845425710940844 
-0.8280145190123955 -0.03687877726480532 0.2773580104506703 0.2657100421955353 
-0.4626900466986662 0.38393616781542783 0.18259902945467338 0.3289144767276086 
-0.2748528883762095 -0.6952114252200162 0.6213370065861791 -0.06774682560071878 
-0.31839853032529863 0.04080407798777206 -0.4830696929616453 -0.3962373160002556 
-0.807138824358783 0.04384424270830981 0.666088049352488 0.24133068814966682 
-0.30809605018973374 -0.13299328917890885 -0.4211776443481062 -0.5605450915479856 
-0.17001024620237762 -0.38323174986119324 1.0011391597117119 0.12532814299267728 
0.26382122343285785 0.4634322775226832 -0.4497307033400929 0.008098056791172557 
0.2025652718483184 -0.36542117000981256 -0.28503737627557524 0.334574309222392 
-0.6892401580315207 -0.2341536863364237 0.6889225138368877 -0.39331136212189616 
-0.5320596787588615 -0.33413418195027345 0.07309835242612658 0.7088586156848536 
0.7260632657132319 0.3144560911433229 -0.3400908623800258 0.009804279543133457 
0.2867942159309718 -0.13136257675304414 -0.45026135164789305 -0.48306347508680864 
-0.11670935772286094 -0.8695567343473838 -0.7967387075530187 0.31913887412669784 
0.4565490971420453 0.35898850986386116 -0.5309504221835953 -0.19002269741825192 
0.789021206210453 -0.6714479688652715 -0.07486510848089689 0.5978862703439657 
-0.13982461801919752 -0.5359768122464228 0.13292394533916546 0.6805916686381548 
0.4153851314877501 0.4210769047890702 0.047481817947298596 -0.29377891110713306 
0.3659495780350047 -0.5582521300847685 0.25648947442338293 0.5286840924701905 
-0.20145642050023316 -0.37291281554327027 -0.3935077774473612 0.2596945262342781 
0.09740160501759365 -0.8055073155778454 -0.012137470639982537 -0.5417160477242856 
-0.5417598627523585 1.1308875405491363 0.8376356916476887 0.3601777380596429 
0.32525567840317 0.1190628567920078 -0.9587744253899665 -0.24818562311512132 
0.3212533137460342 0.3875994193823888 -0.602668788468171 0.8232005947023832 
0.5844311741245457 -0.2861235338832812 -0.3216464046308458 -0.35304237208284034 
-0.9135485521259548 0.11774873912340401 -0.6481004138033414 0.15464379902203293 
0.47430183413985433 0.5601690529726034 -0.11791636772102045 -0.5443180346343736 
0.5798118789021087 -0.7337778883606286 -0.13423593142888124 -0.3882859449685368 
0.06981481538317386 0.3956375404466624 0.6713453418551859 -0.30858101453793396 
0.18102948659504717 0.37420431746682326 0.27683823400780344 -0.36458080947446125 
0.5140258772337775 0.11020665496217953 0.21147646542809928 -0.7169746986586867 
0.017694147458134402 0.4967166361721944 0.384487256390984 0.3515484571194118 
0.37967195621698024 -0.138638226784876 -0.4233964926506002 -0.4536322452474133 
0.15067028400516466 -0.5553872549062041 0.16562435649113935 0.5425445015689926 
-0.40924990990515725 -0.3333977464597276 -0.12396904412463844 0.34275555516235806 
0.12845883315098477 0.6456046080122283 -0.44381545565039177 -0.4504596153402539 
-0.16957477711344446 -0.3959873621762302 0.4568868540719836 -0.44220231911382446 
-0.30752011312829686 0.2586211931403176 0.42422111204474455 0.3082978911780566 
0.1662707616285498 0.6550878534115803 -0.4721967721290822 -0.5711607836325849 
-0.1949979023407973 -0.1665907916307491 -0.49627198536411493 -0.584585788898668 
0.4454552412059838 -0.48926958717235586 -0.35584952960547045 0.2367171507729116 
0.26818933103553905 -0.24733852010600968 0.2975257287608682 0.27962976076773643 
-1.0390752655141298 -0.2573602195905 -0.16993754915471326 0.21375233010946468 
0.2739634967478143 -0.5360601658452188 0.48934016935519437 -0.7540067553899373 
0.06419791700533709 -0.796415366231694 -0.13101431826156518 -0.4069085720327979 
-0.8084088358405086 0.5922842259090182 0.2634672604224225 0.00041277594552720996 
0.0014541188749817296 0.5312670436667908 0.18432627003015128 0.505081846394338 
0.4991784173750538 -0.007708468977220918 1.779321726401535 -0.9989411104727838 
-0.4911679905149203 0.38197573222591535 0.049605192013255986 -0.5560849104524284 
0.48624160770670183 -0.25410636315224255 -0.13111736479478536 -0.47818436109598583 
0.20439015704863392 -1.3391594760763077 0.12642098855303835 0.5674895871116318 
-0.2602240895294945 0.2424969750698681 -0.2749979665964074 -0.8256875501534189 
-0.4808610147915605 0.8048783545116256 0.3177295134000082 -0.3825320649535607 
-0.4963915503756185 -0.10399694915231555 -0.5571421265523718 -0.030873610061666664 
-0.4660980844589886 0.3927361832914815 -0.22415796224328374 -0.3466592760791116 
-0.4534748302796827 -0.31551885285957976 0.22978021787523095 -0.7404187821523546 
-0.9858526505687553 -0.18685126303517105 0.023747416564695967 -0.10530366965930336 
-0.09921791885849511 -1.183253947278132 0.9121026030080165 0.4328750506059619 
-0.023067026091639978 -0.5852998462162499 0.14367798293306772 -0.47501554820425307 
0.30172712112646344 -0.3756867817666166 -0.41166000878989345 -0.5118093985280364 
-0.669257492184338 -0.0683877040122203 -0.14318505792120834 0.560061829495896 
-0.08803132275327233 -0.5920348179352088 0.29392290459127757 0.4716757887223053 
-0.40020482913487476 0.6253984790205491 0.3101079431996553 -0.15277488563649613 
0.1241206972762641 1.191837603591053 0.7194829373574203 0.22092862308709596 
0.2071775778319916 0.36134193343114296 -0.45728348999767504 -0.28118518450313107 
-0.5020552426112035 -0.45862933494366626 -0.382270708195476 -0.07983966069685576 
0.21871288351114598 -0.3197891309073944 -0.3024345593455572 -0.6721040866921205 
0.20468728902612232 0.7720172944747199 -0.5246357437662207 -0.6592829825682027 
0.4360566698237349 1.0647751742727345 -0.16054972780543153 -0.5124483366945553 
-0.4126013744248803 -0.0661439268149247 -0.6649109249406499 0.6754847764127442 
-0.5086909479704619 -0.07548982983987103 -0.1616303305294632 0.5078444590099959 
-0.26571592458121535 0.492850023061105 0.4743932207953717 0.6065284499228856 
0.315877749036088 0.4017164813359949 -0.27343663031727483 -0.49362915221806675 
0.06698388351606188 -0.8235592873673012 -0.1913963663857049 0.3392488014167093 
-0.2781190322006642 0.2967224111594288 -0.3332842029554292 -0.26855779360382925 
-0.7233218722253565 -0.5288554741744261 -0.5822828708896061 -0.2766642197239236 
-0.7276081585709455 0.02496720328193281 0.20704199845720386 0.4843259762845672 
0.02336338648114923 -0.22405861917291167 0.9250858065034375 -0.6137566918197374 
0.1799622422145593 -1.0971661229954262 0.05098792552855936 1.00172616275736 
-0.27176581603564265 -0.4599172401727868 0.318915173974794 -0.3591102314384459 
-0.38267986283537 -0.24169312769403314 -0.4099051912112282 -0.2886091158843044 
-0.28333002303064053 -0.3154485972641482 -0.28173187890427737 -0.3347232254954996 
0.658986301301228 -0.4909894418969216 -0.30084774539497294 0.05819919888191481 
0.23265133548380076 0.41308818029038236 -0.2351927667937875 -0.4439278413563926 
0.5488089299129217 -0.2322750986774142 -0.14491788229504113 0.6045094843803696 
0.2825983532234963 0.3092349465408512 0.5660503384699153 0.46995342325065165 
0.17371455786451198 0.3997172947309781 0.23144218539903239 0.613027622676807 
-0.4390092095874235 -0.5154206537927306 0.06278897466130186 -0.35708204788302206 
0.9917366189796838 0.14217991244020942 0.32047125766701506 -0.02914702126110122 
0.5776085323567856 -0.24512222821925816 -0.3777577829547697 -0.3929119263773359 
-0.06925617141919031 0.01434177403623735 -0.493764332495231 0.7235596148491753 
0.3800232901310663 -0.35760665146922416 -0.5759403794074043 -0.15018769393314707 
0.5368175986573346 -0.2716116331541378 -0.5718028960927215 -0.3048268872170206 
-0.33627792155153763 -0.45145876721852946 -0.8838472817414021 -0.6308562461442121 
-0.3922942223419331 -0.44103493260831805 -0.6636087918808905 0.00552149549639042 
0.20494993277994114 -0.024592558424147887 -0.8272530943873664 0.502875243873971 
-0.2958226723097901 -0.3329088428529979 -0.370097429387732 0.19427431561054107 
0.2590543466701924 0.3221584108087422 0.2754246847888884 -0.27553530782547997 
0.49203970501156086 -0.08734990776626121 -0.15161112192110282 1.6533708600202592 
-0.7234193414820116 0.6642764266322454 -0.6345398939971988 0.013023506462042875 
0.68749479647103 0.05430610275373016 -0.4673927914232612 -1.0172173834793332 
-0.2453682739834409 0.4389218601994967 0.6337747870454982 0.3662571353192508 
-0.44657512749221995 0.7104627513530661 -0.032138449124068325 1.9195634866212083 
-0.2051943101093104 0.58618237686166 1.2977128042308965 -0.4123881432660764 
-0.636362596206168 0.45247135573654285 0.47885710931076786 -0.3711700743739485 
0.5213293956924653 0.5148296814997924 0.18713466185625485 0.31866989537168494 
-0.324364694784465 -0.3120058530535768 0.43897157460258635 -0.30231287169913545 
-0.0586454281133761 0.45773142355193813 -0.24900132228976085 -0.4425813883878643 
-0.173112330214024 -0.04194306388256017 -0.5896825699884756 -0.558072933849843 
0.5757286829335935 0.08209768802373243 0.501969436680376 0.09854744687772327 
-0.24884897904670816 0.17920577020444675 -0.8636945587372651 -0.37604079748708613 
0.1294217382093259 0.6734595334129984 0.2192936127912047 0.873197924961863 
0.4593927184026575 0.17767055464533404 -0.5736515517892131 -0.3827683823158791 
-0.5622269604018376 -0.7786445093514635 0.005389765320163438 0.17930756691422536 
0.10906444694717206 -0.41153390194500555 0.5115378214558224 0.7982852856883654 
-0.4144438756175262 -0.4772733382393661 0.179608067846146 -0.28713757716432736 
0.6657633320141403 -0.5469004694028511 -0.27815211934708234 0.2630944515994686 
-0.3180945768564748 0.19148431920918654 0.37885517415606845 0.44944282832533 
-0.38395462254515206 -0.35818191685095857 0.48195843547579276 -0.7898229363030389 
0.49157955721483954 -0.08504218261387136 0.4038944691501401 0.37462694936249075 
0.46663426995736507 0.27321067989279785 0.29519179020896463 -0.6092363002266251 
-0.23905336581321834 0.625304835159846 -0.5562893347525816 0.2500922074744503 
-0.5368694801950623 0.43106287217589045 -0.3365515656672978 0.047142704059998486 
-0.49936056340975205 0.6611300981950481 0.13457222672250474 -0.17501488568997145 
-0.28764684836969256 -0.8282540785807725 0.517720194688777 0.29273413087702665 
0.48092882847506696 -0.021890745610383986 -0.14881313647553246 -0.6107061569536202 
-0.18307861321082516 0.40703032473680995 0.3292009451764021 -0.3329856855498753 
0.07226401991094147 0.44307437350709694 -1.442965252776107 0.14150329930865913 
-0.18970714157671126 -0.44813326236786877 -0.3315333652484077 -0.7375896624561717 
0.9208791237141223 0.03456940157778385 0.5684766838528627 -0.7125460303381306 
0.43501697468431505 0.621278303984748 -0.12395651200072114 -0.3735110727322895 
0.26299034127083104 -0.6165183105968511 0.4387314344351601 -0.014752234089224216 
0.574131393888693 -0.2975762443811307 -0.00032038299787686596 -1.2561159256991627 
0.430615454334493 -0.8570118653223886 -0.36860220991504206 -0.658595801365212 
-0.4745249362847272 -0.6913297130139527 0.3162733160313661 0.8037495081535659 
-0.3707699124569425 -0.34409021242764654 0.19115866076965762 0.3068512187958598 
0.42497153980393837 0.40499269695610784 -0.6474547671845916 0.54880400673637 
0.2797417791217206 0.39483661879543563 0.508279361350232 0.3130835943363027 
0.6150708069059677 0.48120782900121356 0.15202604199842787 0.26838786134969383 
-0.307928866308309 -0.3900957522690555 0.02210185340888611 0.7183077231559757 
0.6334223621684214 0.270231577953427 -0.07530935970173533 -0.9428157456953229 
1.0782271016942993 -0.18862932048057238 0.9906002034070978 0.23498403857920452 
0.23415452072130152 0.39108852795869925 0.6182466988291353 -0.2690623910220772 
0.9756226318874335 -0.7709817020977362 -0.33765568678207736 0.06586573497544608 
0.5577871733916216 0.2927145968068519 0.2551963616047525 -0.37707529603477224 
-0.282303262057686 0.21457798370255693 0.4473240589618564 -0.4301279651162749 
0.19730295118795088 0.3464662713907658 -0.3016847296683721 0.37370489273346974 
0.13604424833797454 -0.7175887146923305 -1.5251199804381566 0.6426517259676571 
0.3570007870851044 0.40033249016597905 0.3569327864190224 -0.005174597018776242 
-0.24944874136859518 -1.1342384362814728 -1.1716228320714281 0.5427572471460759 
0.6483357369232208 -0.442922475543412 -0.44664372923189294 -0.126459857017641 
-0.4859896853295249 0.27815299989828085 -0.7016033818147911 -0.3436545107566329 
-0.15148489689375452 0.027764267994309946 -0.6132077259837352 0.7600832580531715 
-0.02565311270950636 -0.3944892914852302 0.49844244988653796 -0.31087147769804957 
0.3933632093632311 -0.5079295233304316 -0.1732438097608195 -0.3197956683981527 
-0.3817778789363881 -0.36766347258743903 -0.3988480951220585 0.0532217830449007 
0.37442173249395744 -0.3834819519439247 -0.24939572948598807 -0.8155252824047516 
0.2643043090604369 -0.5519677696335633 -0.3153428184824543 0.3263308509642974 
0.3992044453920122 -0.30716554820322545 0.4576369525212052 0.28122858144895974 
-0.1543215413413072 -0.6540105459454306 0.09717987788008241 0.4871040110871247 
-0.4933626309786239 -0.6757504598572681 -0.17765367901118337 1.347924276913554 
-1.0881406090235548 0.008547290437238961 -0.10371458937393138 0.018931732835678002 
0.5002001863231434 -0.7182725636778051 -0.3498412557221572 0.19063967748160793 
-0.35826495351253485 0.07111678745935587 0.35837148304576527 -0.41823068746525954 
0.053486587886915 -0.33527677687143237 -0.4711277724911345 -0.5816240320233231 
0.2519233879444969 -0.3884395831066735 -0.350961732264431 -0.5113531593576367 
0.1906314454309719 0.3413800672208001 -0.3167309547408566 -0.3275752931656088 
-0.7064496923134955 -0.1293286512205115 0.39431039579427374 -0.34742699763210294 
0.8004039844251994 0.00026596426450568915 -0.5813380448600008 0.0842568805308806 
0.39705485655932715 -0.07543918684536083 -0.3574223737540472 0.4340417930691454 
0.7969760389351578 -0.9245230720529726 -0.07157700092760907 0.31839462804141033 
0.5220781488666787 0.2881186750527978 0.3539681707577417 0.4057408296007972 
0.32494069513907053 0.36505196123945416 -0.2990524276749018 -0.19851661665454598 
-0.3801601020774822 -0.3791823556347571 -0.3799996469963888 0.07332638914169849 
-0.5558095586626429 0.4182134035712748 -0.07683534635444607 0.3296021579413658 
0.6772218968341719 0.4956917021002517 -0.3939943622280137 0.029829739680380902 
-0.2615526234711435 0.4434587747874049 -0.5424306183137152 -0.37653916221314954 
-0.6445574321562897 0.16201229556066715 0.04726057558719878 0.5092300851543943 
-0.032697334709265516 -0.6073685355495672 0.3145904853681156 0.6660679070454002 
-0.692126674668075 -0.20222789516243325 1.3358090789009216 -0.01822793311939957 
-0.5944329030341126 -0.2633176909474799 0.5510010203740685 -0.13053619731925692 
-0.6414280123952086 -0.7039568195492272 0.055735322568977216 -0.35568342733343533 
-0.15571051583256384 0.4839323430056797 -0.20263657555451708 0.4318647072215 
1.1588389031534794 0.6019246505997345 1.2740624550521977 -0.007667021561064475 
-0.4704446817758011 -0.3829795155643164 0.23042975295871346 -0.5201821417247198 
-0.1318016126029673 0.0066901296327659 -0.7887209698742266 -0.516716203608757 
-0.023488366713646715 -0.26032203226246214 -0.4959555587530847 -0.5793512669754418 
0.38394499549705435 0.33446102087904983 -0.040617839747485465 0.4691317438453781 
-0.5792764169904081 0.037664407737331936 0.6095955104847256 -0.38881842626990054 
-0.8131936314913368 0.29232037748278145 -0.3542249812612687 0.60630140628463 
0.514866356449827 -0.6918055772937662 0.5521637121273858 -0.03665241928824939 
-0.7450815975931709 -0.5192029857866081 0.17521478174635427 -0.4033815461643647 
0.41296922256431273 0.9671308580111051 0.41821785846401943 0.08285574163952193 
0.46772113464015297 0.1054404179082939 -0.1518270157109417 0.6007483507240683 
-0.6602060646203469 -0.6840128973345648 -0.19641105026806122 0.05344426334973212 
0.8039567779714386 -0.05541688924898021 0.6353488084770278 0.2814898693320235 
0.003220316202036296 0.39996978168862407 -0.4492843778242795 -0.40948861458708286 
-0.24409010567459394 0.5775042600018246 -0.20222159628836608 0.4962772535367292 
-0.2676540695115848 -0.17703286924637276 0.3265823888957499 -1.149175712306977 
-0.37347116804896197 0.46869397489108605 -0.4879467064314068 0.17851169400755781 
-0.03899492496075628 0.6530225459309906 -0.4437880834116728 0.6407562698583206 
0.5014108052264875 0.21664952143557054 -0.08702974444843187 0.7758204358321683 
-0.2597509034300367 -0.6013807095111008 0.5061774738778942 0.5715211530774161 
-0.09122793852560915 0.6043138958419081 -0.04794143371249219 0.6506179928309731 
-0.26020666012255406 0.5069470304321422 0.42823165522963397 -0.24364778605692852 
-0.3277805753493983 -0.24714082994738806 -0.4733882047889636 -0.659064846764185 
0.2832663764078042 -0.630235970930696 0.28589231893331685 -0.3446592792145317 
0.39664332651527245 -0.31724409729595815 0.44023466276576145 -0.03467896719631188 
0.3531429542894654 0.44209871441473086 0.3854418048451373 0.09818454947886675 
-0.0837433881483763 -1.0326499586630116 -0.06176699932515297 -0.1486510638743283 
0.6030767910187779 0.3858932347390772 0.4601057777454113 0.3297185999009621 
0.6712597975330526 0.17709351465176296 -0.1543203821006366 0.9327588660793131 
-0.16779257173621737 -0.5675523044870904 0.5487281848501696 -0.47143641071100056 
-0.07430679556750504 0.6576416712339489 -0.20504318835870455 -1.0355571314937555 
0.432340922780666 -0.30806711890018784 0.1945454566515635 -0.5289474604340261 
0.22747200616049773 0.27605535219416977 -0.36610651618703877 -0.48706249684560704 
-1.147730615685376 -0.4350754271576518 0.6238045726706735 0.7496231822961141 
-0.46419221901449237 -0.7752248622519522 0.1389604852772341 -0.2580900781258704 
0.5210047355151124 -0.44214768677286637 0.40289994666659407 0.10808823210242924 
-0.45674916528998416 0.18497204593591315 0.5014786209479469 0.20846707819405355 
0.34259329179582765 0.8120620229394476 0.4613359187270576 -1.0178267413304796 
0.20828401720497258 -0.45759850506564004 0.3491102926365926 -0.3997956962087743 
-0.3962791506720506 0.014798601906297176 1.4912222320820128 0.17633517497112755 
-0.1305055230947544 0.5541342759189956 -1.0008782314759261 0.36580054165622367 
0.9339419994303002 -0.4917684306140241 -0.14594546753863585 -0.4823241259672691 
0.26220780601983945 -0.5685645660112322 -0.3633429134062148 0.2136132251005258 
0.02370030271671058 0.9442414625749901 0.32138953791553027 0.4137497969067031 
0.9539200743805697 -0.5374749022201818 -0.3986166493411164 -0.40256676151207677 
0.8814952445057858 0.4930428276893745 -0.12828908295144603 0.19731614719807336 
0.7422533182963411 0.8152635513443734 -0.44291504585488906 0.1652323810866952 
0.5485918164232289 0.5758741215143504 -0.04197021250096285 -0.021541720999359124 
0.5612664515440834 -0.6857420375887711 -0.03609319627465612 0.6089021243189056 
0.5133288534151664 -0.055711176111742595 -0.4963929896285275 -0.20172098847990608 
0.12758550339682526 0.5027214539266038 -0.4478037125448554 -0.41871970591770186 
0.329044318460081 -0.26512565325318205 -0.7754967231775313 -0.031370268852440465 
-0.01804459986382756 0.5295552503543356 1.7507653574624016 -4.777350136582433 
0.4836232321508386 -0.4832703842086649 0.0648897525043356 -1.007681015357737 
-0.5951341048421429 0.26468591927463314 0.9252423561858835 -0.15066062275850578 
-0.39055027606162257 0.6683139994432987 -0.23298545246916433 0.38008366741614036 
0.48171681254987647 0.3070972785694973 1.0183754128786082 0.1454677615402264 
0.7131926368828074 0.4261692297445681 -0.028104231601052625 -0.4079984483200377 
-0.31524723771789664 0.7512512702274283 -0.3595785863995496 -0.23826666263643548 
-0.27615787588497276 -0.7442400849925273 0.748546162575468 0.5744136775844554 
0.520437914608759 0.6460564311591167 0.23370904322761235 -0.2944795428399835 
0.5066221416599225 0.651083860629465 -0.0039058461027658207 -0.1836348104543695 
-0.38989269964533907 -0.06547920637629305 -0.3077282340660862 -0.5026236687771201 
-0.14616184966713344 -0.7159199644850502 0.38318810039541257 -0.4662903040840425 
-0.03771208413661403 0.5512146580851325 -0.3415408635401872 -0.6132778490308503 
-0.33499935332347497 0.6347060760563056 0.5765273142916953 0.8029536840140035 
-0.1371817972264209 0.5524860027307469 -0.399680356506177 -0.536391663035277 
-0.34183379967327715 -0.1944213636731291 0.3445285810892185 0.29484544693598114 
0.06949376049387938 -0.8859169325192897 -0.3880411886793977 -0.7719862825296359 
0.5467229047824634 0.3617699586229283 0.32516379256578504 -0.5715947872632804 
-0.1145578640950422 -0.27547491653195927 -0.48418900787307223 -0.4103863375325175 
-0.17370995098588102 0.6392794610883974 -0.24017000645552936 -0.47748870755059175 
0.2574522351531434 -0.4443374970826853 0.25765372048922025 -0.5305385366829121 
0.5595052388456573 -0.2769326640588361 0.02464788984181191 0.7568994621950872 
-0.7044915443345677 0.2547428377082452 0.506209487915386 0.14525556612894477 
0.3674728091397807 -0.38748148581433756 0.5257659129120378 -0.2098901934632586 
-0.37150352411438303 0.5645774339430184 0.4348907149738188 0.4657892036355178 
-1.3339805270339233 -0.016060164879985035 0.9702693109661648 1.3561113831257583 
-0.43191857676433376 -0.451874161987088 0.5133791869102229 -0.5282193986511774 
0.49044166832569747 -0.0707476805545462 -0.09702406226616488 0.6329467582912339 
-0.34854339660382894 -0.23487340247027882 0.5570012687051016 -0.3241672244519767 
-0.1957110078001712 -0.2999578702916883 0.44834989282653814 0.37688241618442814 
0.41453664752514796 -0.20847042962450044 0.46773008906183816 -0.39784654754489324 
0.050149047686254285 0.46427186315092656 0.24524309613311895 -0.7196599654335074 
0.4689526228685761 0.25281018877264694 -0.43216591277725014 0.01348218385383702 
-0.2972060589745402 -0.32772440002277514 -0.008866200608020324 -0.8454773664447566 
0.4387365793774394 0.3043315186918852 -0.4898792480633457 0.6266371793395552 
0.6334469134632597 0.44984204505681025 0.7503110774463128 -1.058965839866754 
0.0342093144265265 -0.41409865864726686 0.35526288567594283 -0.428056745830381 
0.3564307786093709 0.38396026685292006 0.05725153046895544 -0.4308073108066749 
2.2515984767401345 1.6475753775040516 -0.011368539403127223 2.1222817818329456 
0.43356639583445405 -0.11443063688224223 -0.3155014478624077 -0.5084130491819434 
0.4856718367634077 0.16763222520276486 -0.4544832706407239 0.3016534336622053 
0.495158697462477 -0.06608292724150373 -0.5710698797070515 0.23089845217416705 
-0.3801791944066518 -0.2155976978134758 0.29185696125249233 -0.3619413247537686 
0.4771972614392269 -0.31959630056482496 -0.9035951357025673 -0.4968056995226015 
0.3724486944978517 -0.13073602539765483 -0.6714103739692516 -0.36028053506047203 
-0.6034864615432489 -0.010583057768454883 -0.09056004208110181 -0.7526613670181012 
0.3738863181458152 0.2529389622163127 0.7038532668606521 -0.09601906294351192 
0.2195324101545879 -0.16293370618240394 -0.34683999829941753 -0.9994549263299236 
-0.15282352858395215 0.15368310283427872 0.4772511879287401 0.7447936447884255 
-0.21805376005377045 -0.5099341639032583 -0.6259173032196691 -0.2380706313949036 
-0.9052733476828341 0.2783579214001876 -0.4324495104750792 0.403764901424627 
0.5372626295528282 -0.2107853607300605 -0.42618018319266826 0.481846236653909 
0.28345973355836473 0.36721643965129297 0.36408399160500854 0.3327442775881865 
0.2965711603144469 -0.42517997784543715 -0.15523058868806797 -0.573452906499879 
-0.9225154316675989 -0.35655391333593356 -0.21960511162253926 -0.060715155688022646 
1.16189912771132 0.0985876799675012 -0.04890743206265023 0.45582826153330613 
0.4708355752916825 -1.5238639856034377 -0.2628435570809633 -0.34830089058722485 
0.447437193870166 0.07747296859761113 0.35681701118670445 0.6598504527753719 
-0.5938490757426449 0.43427673280296764 -0.24186203258963918 0.5788771615164053 
-0.18800010163532174 -0.5021905369321131 0.39465360997517285 0.32337176215067304 
-0.34345411648705776 0.2645872181540748 -0.7105138999327901 -0.3077636207492529 
-0.0663270822942347 0.20493161057334178 -0.9816847939867736 0.5708130408630211 
0.10479205376934002 -0.08653682238021781 0.5215889095464796 -0.5364892790026461 
0.49663627848940173 -0.3725795180088785 -0.3546445183304748 -0.8606483002704831 
-0.3837695071350402 0.28355505191597813 0.5179263033537471 0.5200988469869939 
0.011540573337122018 -0.02742950677707595 0.09919153854188331 1.0357426923548494 
0.4452150435461163 -0.8272384979946987 1.0506886042181525 -0.5689891721502613 
-0.43229424929861926 -0.7698958218185834 0.5220304357060566 -0.6105783775526837 
-0.7110288488774812 -0.23213814526042037 0.5984086073231062 -0.22749663279830976 
-0.8271952540082251 0.4764209096957153 0.5138269528995082 0.37288763624745624 
0.04059458860714741 -0.5167658623583086 0.5018172937810392 0.07024536918853001 
-0.1344860913833788 0.5061001039448566 -0.22040087803719377 -0.5261035611028247 
0.43946061514216156 -0.19256227854413233 0.5312478903863123 0.3901031629534391 
-0.11661409219482999 -1.3720279914049147 -0.9732581942856281 0.43162050525304935 
0.5583091714458653 -1.5369742502710206 0.4413545858842034 0.5132610522537054 
0.23467163882380368 0.6522425633440243 0.45534595385550924 0.05097007588003896 
0.4471587902172528 -0.5553923979062866 0.11690484420299613 -0.19807117905236504 
0.8221462446697124 -0.7295405734648847 -0.31269154435814944 -0.10831966385883023 
-0.5380726755664405 -0.234957252849432 0.5386048367595602 0.5140403600542907 
1.1524807259017633 0.505634449729604 -0.05344310173406639 -0.5373075031742457 
-0.24557302063926567 0.4432295317301217 0.6317290492888269 -0.08065606636460534 
0.17762549142657463 0.6854536897378416 0.6466783365921692 0.07155038381589704 
-0.010658692227986767 -1.0137785651214075 -0.19636624679738737 0.4364200099646995 
0.431945193802003 -0.3846596839678415 0.5833811442932056 0.1521274765454668 
0.20131717921782677 -0.9194085233889517 -0.15439558126378816 -0.5882176015443119 
-0.179470456642234 -0.8291521481315373 -0.8127246292517258 0.22793837973861572 
-0.45139099920101655 -0.8774546418479401 -0.5208156067042065 -0.03926175429883579 
-1.0798384318124483 0.454013185215583 -0.10938863969721152 -0.37624024084155655 
0.35933902372580506 0.8245014601256923 0.8807907890332269 -0.05925098701060016 
0.01232496200511618 -0.2316390567229536 -0.9293641182685378 1.8745130843573437 
-0.33252819880753615 0.4117482506335109 -0.029650640783430635 -0.4251146083444364 
-0.34567751598624613 0.21805130716408547 0.3107967827428029 -0.44361785253765906 
-0.7199014601654721 -0.3067809939711172 0.40992889070217053 0.4575324279855719 
-0.27425379493853186 0.3268415106813777 -0.6740979507201179 0.23612766318688294 
0.3345613673617869 -0.2581379309010892 0.3172546089871076 -0.3473320214066322 
0.4668002581850918 0.385906568422551 -0.2055994657785497 -0.49209189248573393 
0.441335559398246 0.32809422406584987 -0.5631199767785726 -0.5628036365023457 
0.07475008215664955 -0.4482088759832438 -0.2201460827763679 -0.5597083527980531 
-0.4446527116969046 0.2131846589691549 0.6861180872715835 -0.22464470903198308 
0.7810740243474898 0.5366655459966442 -0.016857176022002256 -0.4914776301908386 
0.004605194347697759 0.363402607737786 -0.33596631769049895 0.38875961818438015 
-0.5440657628837808 -0.22291297084303782 0.6210806694732235 0.5729194237747417 
0.2239907451671623 0.5817451855434373 0.4984653814700904 -0.0441269135526055 
-0.5175136353398531 -0.4454558198389441 0.0415074824855213 -0.45060684793647576 
-0.9560903546808018 0.14217392416870475 -0.013061657515121538 0.6029889849947778 
-0.8297702054621714 -0.26629136694678834 0.1545963699545633 0.22160573876108547 
-0.50046628927375 -0.10354841540762183 0.37438471633117937 -0.4852884968721285 
0.819807487581948 0.2904667651077153 -0.3191197748924217 0.30472827982041584 
-0.09421985001519485 0.32281286577207 -0.3853965182040047 0.5083860592062278 
1.049830621314062 0.67092660975913 0.8059721606015912 0.18532875149538766 
1.016958365791391 0.3059800726506055 0.07940298192869347 0.606546611327495 
0.4993366990026314 -0.37423858093766144 0.219976689742796 0.3139822148981388 
-0.2898668616324151 -0.3330692170006529 0.808049562760393 -0.9613943451551421 
-0.4895452870294933 0.6277227063548451 0.1545653870810298 -0.7878443677247928 
-0.3014899737400519 0.8877152155418117 -1.0279325862145572 -0.1056499876732233 
-0.49877255157477757 -0.13710364447570084 0.8203487773908673 -0.33541080637141973 
-0.42687997803878963 -0.043275338824201044 -0.34476098990763393 -1.2054118255513138 
-1.6395025355905672 -0.5306265181088793 -0.8858576032905215 -0.5831232736284243 
-0.49335708330210315 0.7055846382809009 0.2992159518991591 0.12254563795107716 
0.4547164153367473 -0.11375185968186909 -0.2469789837114945 0.4474242054270276 
0.37075124377362134 -0.506607419754998 -0.12659291479908533 0.46252688389386964 
0.3869417678838513 -0.4061843151504109 0.38771235889756506 0.23342837429051722 
-0.6770315194525441 0.08435285659239196 -0.2423934303355273 0.7169480382950426 
-0.6775726379222818 0.7220362106854468 0.282324127578508 -0.16815820963798842 
0.3009032716077911 0.12314370731994152 -0.3959752002595915 0.41459940935704404 
0.5067519563105982 -0.4367274354203788 -0.3116814782350207 -0.11253134471070024 
-0.38050710563708773 -0.035949962658482125 -1.2170948753568849 -0.03230313681333576 
0.455368377266527 -0.40197634926773784 0.27973367129507104 -0.3855221095109136 
-0.9744821708855534 0.12942264664553108 -0.23972863305719438 -0.30605209443904496 
0.7365002349337665 -0.6668555697944605 -1.1218071546999162 0.019035342718139885 
0.02401301521278389 -0.8159454774059056 -0.2733070278121585 -0.473021360949122 
0.48632008036548247 -0.40996301973769234 0.42039104916086967 -0.43899312779725247 
-0.03668357767591193 -0.12422316914314441 0.5458524591450917 -0.5230873936372564 
0.14557922406747434 0.4422550040214482 -0.4098754680876938 0.7495891225665855 
0.8793896759675929 -0.44031715065135557 0.9412470836793028 -0.14446293414896605 
-0.3430269602560863 -0.33392725100867626 -0.16456133320539068 -0.46563214202792924 
-0.9737073826774212 0.26450330393544097 0.2770567415732343 -0.4943047987087256 
-0.28498902973519924 -0.3917283417496264 0.3989452809490114 -0.16389080079031718 
0.4917624430943017 -0.8446780471415084 -1.443325553665092 -0.6650567537428622 
-0.1535831353010497 -0.47943057176620396 -0.22895736017591317 0.46296168946987204 
-0.32746033029436616 -0.42568447199073706 0.490473040535997 0.19296536474349796 
-0.5650586398522229 0.5067519434916371 0.513867482628405 0.11207770532540041 
0.15995540947719053 -0.6104532389167582 0.22789919563774402 -0.48222463920555125 
0.8240818827067936 -0.5714232180665406 -0.08926600725293715 -0.3211893882456791 
-0.5222653955749493 0.09135611789255937 0.15274969924356438 -0.498796600662797 
0.493046716642927 -0.03878247013848268 0.300596503959544 -0.5781357639539828 
0.3761175028608388 -0.9607501380022657 -0.10757104409930149 0.5292946771371448 
0.24097885694531931 1.0863669603287995 -0.07462877357162896 1.104816709643924 
-0.30429770245817606 -0.3072385794245141 0.42456841588007604 -0.24209746669956408 
0.4536172198313643 0.16782815029000164 0.15174283006179431 -0.5521165394349629 
-0.3572746353759661 -0.08701442788430279 -0.3255548248198885 -0.6975713882055952 
-0.49816953420336446 -0.399396710476919 -0.3704210128340331 0.12596141083855106 
0.13768290190038604 -0.5699050354428444 -0.003492139905653415 0.5161782839537522 
-0.6884415408483351 0.11598557434959275 -0.14452512787393815 -0.5929252388330457 
0.20705280394889927 0.529192241300158 -0.24400036857423704 0.41374993847096453 
0.3960601643144824 -0.4591103971448508 1.0986862350766755 0.19637971564073214 
-0.44437729122719694 0.4734500979817771 -0.3794470678673426 0.15506048975672504 
0.41617598396745825 -0.2075003226194539 -0.21595251190644935 -0.3995381722321185 
0.3280915776605532 0.16812515630427144 -0.47367325164115526 0.3911155425705141 
0.714840133361487 0.037174828103551764 0.6174645762519172 0.21466458009465192 
-0.3713056010229068 -0.1730543841948939 -0.43774424655047095 -0.7601653264355137 
0.5403771385656513 0.10125419729891459 0.37717416902793066 0.4789710795220314 
-0.5511982526172254 -0.3770483509767353 0.3919958709599852 0.1388335306969208 
-0.04347678817578681 0.20630807270896467 0.6131578782467864 0.5516143417408714 
-0.36387040952599237 -0.4670293811180227 0.3019186323881655 -0.41544977258382804 
-0.5194874281827052 -0.5236341624227017 -0.0805313478876875 -0.28065288936400384 
-1.146454176891311 -0.3926023900765677 -0.027639572019912306 0.04409373388898825 
-0.37067147714122683 0.17194274538804397 0.5636915253754494 -0.5931048734158221 
0.29176497936874696 0.35829315922364513 -0.3625135759533429 -0.33503904454310973 
-1.925198163338721 -1.0736546086308953 -0.028404434528861197 1.042394291107047 
0.6739819364559566 -0.13264233106686557 -0.25205273161983555 -0.4614176911309157 
-0.2211511393494415 0.07905188679026559 1.9005506616598566 1.1318849905193804 
-0.6331782856760151 -0.14919710182080204 0.31348507573949763 0.34975626032854445 
0.0009286613895412114 -0.5732644132171089 -0.48142431929660234 -0.1304595007068864 
0.44529923358556395 0.6863865677738248 0.023275389217968134 0.1281823792907202 
-0.3853816869460287 0.40071540826709756 0.6021871016714367 -0.028464073758593368 
0.43066933608622293 -0.0862662559529722 -0.04905250461453491 -0.7364658135480966 
-0.39925141473640463 0.5363142399810188 0.27527531684926415 0.14285382217474937 
0.09916609197097272 -0.1465629579660357 0.3198474730722642 -1.3076954088612893 
-0.41666461365163376 0.3256961400043553 -0.3205496719551857 -0.275334552909612 
-0.5089466474679726 -0.8373893657076018 0.14834515597693612 0.9124542374231471 
0.15503136676130586 -1.1151573846746292 0.13554846503828663 0.38922757901699967 
-0.4743092506620472 0.4479556779817883 -0.3520911887605361 0.009615215657326155 
-0.07660798819279142 0.49748674090836165 0.32978098202581596 0.5615750411280998 
-0.29277196831227925 -0.48963041167793453 -0.08645559611781632 -0.7330493720286869 
0.31921283007220763 0.4101661265263116 0.3859085079560073 -0.47350541062102147 
0.5200252815531733 -0.6881206245651075 -0.33390834930608826 0.05938725135819906 
-0.2645249614278472 0.34200218725044396 0.34195765324194993 -0.20084600667612923 
-0.8515047476866477 -0.328712835722281 -0.6996945738350693 0.43488237015105496 
0.6143737340308185 -0.4994356886751431 -0.19696764637735087 -0.7149775122561457 
-0.14465409554332026 1.4311491734982404 -0.14960191114831733 0.2551430862779887 
1.1194982957485593 0.26750927373700384 -0.21851136035646482 -0.34287543993628544 
0.5138045851252131 0.5502314093082107 -0.46593781599882794 0.11840610428185104 
-0.4582926231965591 0.8694520311295315 0.10767929495337697 0.6259857926668513 
0.5173282864294364 -0.03261775175019685 -0.5299180767777568 -0.33870763507393387 
-0.4296786564641846 -0.1409000807148354 0.7320000859438387 -0.6519976050768248 
0.048166090646962874 0.5961618143750178 0.6158905697682644 -0.20313829162260713 
-0.49113947644022954 -0.4327962723800295 -0.7083773296924554 -0.3303360140947502 
0.433900667992194 -0.193979361896909 -0.4308281974460795 0.2437177081999659 
-0.3850159502903068 -0.2915391649650675 0.1534982741293973 -0.36283357869942934 
-0.5234975734746765 -0.7359426174150432 -0.22688712031004524 -0.6290820225848984 
-0.3504909158539741 0.24207930281392923 0.2850673028506927 -0.3415980238998138 
-0.45739075997003226 0.596650203243033 0.41876665184009326 0.007023118869543624 
-0.42415589140108056 0.07943465368414156 0.43138379121585446 0.6324746966628327 
0.5726967324305406 1.018538099465643 0.6430075742440768 -0.6097323714452635 
-0.866432137867721 -0.03328930679813492 -0.3324664041890005 -0.6220810613468508 
0.2787512294793091 -0.5302937510624739 -0.3749396543266209 0.229935655861882 
-0.5145525364512743 -0.41012990104440755 -0.028251854584295407 0.3083104988440706 
0.3478117348016247 0.2809377099601585 -0.6645034047087497 -0.718927587041779 
0.4787275341295137 0.000795276996168688 -0.5240207585337181 -0.2139185234224922 
-0.4167202511228035 0.4070130819000405 -0.04061404063617328 -0.5913749949987682 
-0.9380933457822456 0.13429864279453324 0.4248623120402666 -0.07663539297714125 
-0.008660420610604031 -0.6594221207633685 -0.02484272588922706 0.5626649495579443 
-0.367849600260033 -0.44336529817175657 0.3484250716283186 -0.2015000583520346 
0.5121037198412263 -0.28554692189837644 1.4881000826608255 0.6544962183345245 
-0.5553104998860092 -0.37863692941978355 0.7233620657627238 0.15281066008297634 
-0.34683853516066976 0.6061792779394304 0.24031122652800935 -0.435834407295912 
0.12854173912271502 0.33593013995805754 0.37262586527471364 0.33365066195936416 
-0.5493667026764268 -0.4142550806435701 -0.3189911201175779 -0.24516632598560817 
0.5417485094284011 0.15265049154432786 -0.09998156745989109 -0.846972492249254 
-0.32746574438122505 0.7954912426988181 0.22412734694499234 0.594730224790996 
-0.43076109963707376 0.32097038130498656 -0.10345037036943161 -0.4560277573880176 
-0.5332843668852261 -0.5381211562860454 0.4465170969836587 0.09510271458830022 
-0.33545389233852996 0.39580273102720503 -0.36674010323489276 0.4416977074281077 
0.5912172048795539 -0.49208915561279243 -0.16855255294745602 0.017657399627467492 
-0.20021537828965763 -0.3689168119071333 0.333251679179461 0.341494977764964 
-0.38771588504819426 -0.3860080458770254 0.2332701146256682 0.23656403597171596 
-0.8193926631176267 1.2306452507569394 -1.0099303048533879 -1.6384968576882157 
0.18070820606345508 -0.4183357378588592 -0.8420447132617124 -0.8017335342664091 
0.029217893272144326 0.578235391764404 0.20038801468316775 1.49187738514989 
0.10512405459285948 0.9344398321785942 0.2933673602206872 0.050890768447922057 
0.6530218566303261 0.38195021787881633 0.05009657972610889 -0.4673096915629064 
-0.39935561079998905 -0.3511005809727871 -0.12668305806884297 -0.4406144404573252 
-0.13955460016263208 -0.4404244544925434 -0.2148581868516325 -0.5901110141326704 
0.6644927648256918 0.5526354960963895 0.3615825810727277 0.24249916487666978 
0.4748525546656487 0.40051276596046637 -0.500305487646519 1.0162304781161844 
0.1670892036120394 0.4066397944420347 -0.3943775664782049 -0.38365276503128204 
0.24472895668785719 -0.5108257556309093 0.2179700663680625 -0.524155036444958 
-0.5151757751900327 0.14532429987393702 -0.2952792857128316 0.5545547310407268 
-0.07998386354447144 0.33407846635260924 0.2566893116904369 0.8711451345868944 
-0.6605465455548621 -0.08504162820943702 -0.6413744348266069 0.023791668369102893 
-0.07363700349778639 0.508626044308157 0.31174530695226194 -0.5221905459153189 
0.3376859469042309 0.44265753886417497 -0.5643059279326567 0.528888821322104 
0.028516642709570605 -0.017444196378978795 0.559158324824551 0.5319128588629497 
-0.4130810846023866 -0.9331389649831149 -0.23818844237303047 0.6425197904446356 
-0.15816706507721925 -0.16020689545245806 -0.6315653304227667 -0.9175713871057539 
0.014640770579750306 0.2451371073563148 -0.43585365325665243 -0.4362316930973394 
-0.013868055590028927 0.4844610311495265 0.3096985609505281 0.41128045810218056 
-0.8688815059187806 0.7140867042059602 0.026183265315004412 -0.31534594334378785 
0.7363209610890444 -0.3346916375563972 -0.46240634721989066 0.22151876313241275 
0.504260162715753 -0.23934394107646337 0.45058366092597296 0.3696614944475152 
-0.09536505143957522 0.642572143378077 0.6335181898057367 0.024919581505768822 
-0.5983404876601726 0.07791277014645165 -0.5827695476513274 -0.14250645732919154 
-0.47147306300659525 -0.024821165021464007 0.2978329094198677 -0.6598693332515129 
0.20195367687118665 -0.19590256151909638 0.42374853424306286 0.4378191582668742 
0.4064549788098294 -0.014165563393862584 0.36586319794598626 -0.3507764409606747 
0.3790703756827678 0.3076351918123206 0.4746828650812176 -0.11124234741299802 
0.25847438426593616 0.6287010604759481 -0.05908755314320441 -0.41905026050791194 
-0.4896411772027349 0.7137949207556632 -0.21741422401923954 -0.38454936839088105 
0.846504481783593 -0.1707716064510421 -0.22223686632961248 -0.3035233972656297 
0.36958104799821556 0.04459804930433865 -0.43222510496076777 -0.4905181517087585 
0.16552732801176637 -0.9317817603388643 -0.3364905382484811 -1.150236867569114 
0.16791967326309015 0.314143382465634 0.40854490137695065 -0.5724270667381719 
-0.3521620932719656 0.37845942389283166 -0.3926924934883297 -0.6106314988714796 
0.985063195420946 -0.7114100021175246 0.041284197198122874 -0.6429434457661057 
-0.46731076047198616 0.4575717795043552 -0.019923550452305455 -0.42554920514056604 
-0.2099381044281708 0.2302556227958662 -0.49012084916838133 0.5269780015233737 
-0.017010575714219423 -0.5411526246123531 -0.6214391885173541 -0.3225101173820546 
-0.7500589679783289 0.016774366460564686 0.24726723718783822 0.40727569166712174 
-0.02686470039927019 0.9045671588527358 -0.31226346695445895 0.02213994040062319 
-1.0618927308381843 -0.6723322588816981 0.2863941985728064 0.0646490875217835 
-0.03574822428438927 -0.7321698448018965 0.7069602626980022 0.3500982780426307 
-0.34266233889051145 -0.1905129430424093 1.042428337732964 0.42858401979380667 
0.27017061409031373 0.4287155878017451 -0.17173893285609174 -0.5322507725154897 
-0.05395314853650415 0.5474065450950008 0.5606685556988146 0.04173961619645625 
-0.12044853406778708 -0.4267936067708345 0.8476221802985358 0.13588280653411075 
-0.017334099866657626 -1.2425021306155424 0.4224066485897597 -0.2952993858249632 
0.7346815098792306 -0.43831001395249963 -0.7180413385058496 -0.3716196596741991 
-0.10327359608557735 -0.5319389914545345 -0.6238150461620517 -0.0022676049486783276 
-0.5708195692886373 -0.5124347083560709 -0.08156606071657292 0.1659356955768433 
-0.7234576709194347 -0.5767018433929375 -0.06055440642194998 0.06361388688012216 
-0.18746761436223083 -0.37398159194366104 -0.3641693695423082 0.4320997578154913 
-0.10440306220838824 -0.48187597118769915 0.3445575466767028 -0.4335416141775508 
-0.4895834251481393 -0.5128967484732448 -1.2726979341647897 -1.2408319737156326 
-0.023987742294963647 0.38055848171867385 -0.3309920840092211 -0.6501366575473383 
-0.07172287434123235 0.4963698600440116 -0.5322677563578732 0.39443569415241875 
-0.2058648635641478 0.0465171896077892 0.4516552958361683 0.6114185403332231 
0.6225735169520531 0.2164618585411237 -0.2504030315108152 0.4643688920774832 
0.186100650447511 -0.2939269235996613 -0.5302485064303758 -0.9171626765847883 
0.744213904501813 0.0014885458566028088 0.6876626674435503 -0.3189548590043185 
0.4714459178249932 0.06889382307474555 -0.36107842126483713 0.3722453413989471 
0.4576551634142949 -0.5521097262352025 -0.2495591119542267 -0.08700086282337445 
0.25818326135776704 -0.30466850436869963 0.33808470644402044 -0.27489820000548776 
-0.4023254276906453 -1.0615981481716632 0.25033768909182325 0.3448149043090071 
0.7470912573719222 0.04676401765361698 -0.3691804977434077 0.7288831562611922 
-0.35319880982610646 0.4669588476079643 0.13388333708623298 -0.6444600192006065 
0.12539019414531635 -0.026019474485215757 -0.4504703519510278 0.7596957886559828 
0.7983018345757684 0.3879816049723677 0.3718392669573762 0.04262182579064036 
-0.13123407408032967 0.6633894356442319 -0.3534936462862008 0.30904633013497074 
0.39209665836914676 -0.8033754886945681 0.11138004073615569 0.002208375605350792 
0.5614938576950005 -0.23439900557488524 0.022258111563911744 -0.4971619131813698 
0.14157924344348644 0.08533865792130214 -0.3441296527695551 -0.8459145293309995 
0.9694667950091955 0.5205577108844414 -0.10608538865759627 -0.31425969417948796 
0.5414902106935435 -0.004494760521956464 -0.45243947577962595 0.2736839986712032 
0.4749276436050096 -0.28843906087172544 0.5300045564406157 -0.14546515083369901 
0.3032090718191904 -0.36248980147956894 -1.3404148794621245 0.36426844037496164 
-0.21205075363469977 -0.4290536780641319 0.39713532306952604 0.40039814854127304 
0.3230971783022075 0.41995807934932816 -0.6991741649506285 -0.14765016143833581 
-0.31895010907538485 0.3290772079040322 0.365057061337246 -0.2720173424624903 
-0.5055879486592864 0.06925124871036602 0.49580994671632705 -0.143891595062269 
0.5146800179219703 -0.6043035322489264 0.276162270617222 -0.5023832972553648 
-1.4214043777922227 0.684898384691374 0.20832173954238706 -0.2958286624234049 
0.5443885956269371 1.2649464225968352 0.11943018026143629 -0.27292388194367845 
0.17668731601993495 0.4690087806657642 0.7108463918301113 0.008027456758732496 
-0.27729298729863616 0.5201461452517833 -0.3611239391581797 -0.5154874306219905 
